{"learner":{"attributes":{"best_iteration":"484","best_score":"0.20968202981677023","scikit_learn":"{\"_estimator_type\": \"classifier\"}"},"feature_names":["distance_to_goal","x","angle_to_goal","y","time_min","body_part_right_foot","body_part_left_foot","is_assisted","zone_35plus_centre","period_First Half","zone_out_of_box_centre","period_Second Half","is_individual_play","zone_out_of_box_deep_right","zone_out_of_box_right"],"feature_types":["float","float","float","float","float","int","int","int","int","int","int","int","int","int","int"],"gradient_booster":{"model":{"cats":{"enc":[],"feature_segments":[],"sorted_idx":[]},"gbtree_model_param":{"num_parallel_tree":"1","num_trees":"535"},"iteration_indptr":[0,1,2,3,4,5,6,7,8,9,10,11,12,13,14,15,16,17,18,19,20,21,22,23,24,25,26,27,28,29,30,31,32,33,34,35,36,37,38,39,40,41,42,43,44,45,46,47,48,49,50,51,52,53,54,55,56,57,58,59,60,61,62,63,64,65,66,67,68,69,70,71,72,73,74,75,76,77,78,79,80,81,82,83,84,85,86,87,88,89,90,91,92,93,94,95,96,97,98,99,100,101,102,103,104,105,106,107,108,109,110,111,112,113,114,115,116,117,118,119,120,121,122,123,124,125,126,127,128,129,130,131,132,133,134,135,136,137,138,139,140,141,142,143,144,145,146,147,148,149,150,151,152,153,154,155,156,157,158,159,160,161,162,163,164,165,166,167,168,169,170,171,172,173,174,175,176,177,178,179,180,181,182,183,184,185,186,187,188,189,190,191,192,193,194,195,196,197,198,199,200,201,202,203,204,205,206,207,208,209,210,211,212,213,214,215,216,217,218,219,220,221,222,223,224,225,226,227,228,229,230,231,232,233,234,235,236,237,238,239,240,241,242,243,244,245,246,247,248,249,250,251,252,253,254,255,256,257,258,259,260,261,262,263,264,265,266,267,268,269,270,271,272,273,274,275,276,277,278,279,280,281,282,283,284,285,286,287,288,289,290,291,292,293,294,295,296,297,298,299,300,301,302,303,304,305,306,307,308,309,310,311,312,313,314,315,316,317,318,319,320,321,322,323,324,325,326,327,328,329,330,331,332,333,334,335,336,337,338,339,340,341,342,343,344,345,346,347,348,349,350,351,352,353,354,355,356,357,358,359,360,361,362,363,364,365,366,367,368,369,370,371,372,373,374,375,376,377,378,379,380,381,382,383,384,385,386,387,388,389,390,391,392,393,394,395,396,397,398,399,400,401,402,403,404,405,406,407,408,409,410,411,412,413,414,415,416,417,418,419,420,421,422,423,424,425,426,427,428,429,430,431,432,433,434,435,436,437,438,439,440,441,442,443,444,445,446,447,448,449,450,451,452,453,454,455,456,457,458,459,460,461,462,463,464,465,466,467,468,469,470,471,472,473,474,475,476,477,478,479,480,481,482,483,484,485,486,487,488,489,490,491,492,493,494,495,496,497,498,499,500,501,502,503,504,505,506,507,508,509,510,511,512,513,514,515,516,517,518,519,520,521,522,523,524,525,526,527,528,529,530,531,532,533,534,535],"tree_info":[0,0,0,0,0,0,0,0,0,0,0,0,0,0,0,0,0,0,0,0,0,0,0,0,0,0,0,0,0,0,0,0,0,0,0,0,0,0,0,0,0,0,0,0,0,0,0,0,0,0,0,0,0,0,0,0,0,0,0,0,0,0,0,0,0,0,0,0,0,0,0,0,0,0,0,0,0,0,0,0,0,0,0,0,0,0,0,0,0,0,0,0,0,0,0,0,0,0,0,0,0,0,0,0,0,0,0,0,0,0,0,0,0,0,0,0,0,0,0,0,0,0,0,0,0,0,0,0,0,0,0,0,0,0,0,0,0,0,0,0,0,0,0,0,0,0,0,0,0,0,0,0,0,0,0,0,0,0,0,0,0,0,0,0,0,0,0,0,0,0,0,0,0,0,0,0,0,0,0,0,0,0,0,0,0,0,0,0,0,0,0,0,0,0,0,0,0,0,0,0,0,0,0,0,0,0,0,0,0,0,0,0,0,0,0,0,0,0,0,0,0,0,0,0,0,0,0,0,0,0,0,0,0,0,0,0,0,0,0,0,0,0,0,0,0,0,0,0,0,0,0,0,0,0,0,0,0,0,0,0,0,0,0,0,0,0,0,0,0,0,0,0,0,0,0,0,0,0,0,0,0,0,0,0,0,0,0,0,0,0,0,0,0,0,0,0,0,0,0,0,0,0,0,0,0,0,0,0,0,0,0,0,0,0,0,0,0,0,0,0,0,0,0,0,0,0,0,0,0,0,0,0,0,0,0,0,0,0,0,0,0,0,0,0,0,0,0,0,0,0,0,0,0,0,0,0,0,0,0,0,0,0,0,0,0,0,0,0,0,0,0,0,0,0,0,0,0,0,0,0,0,0,0,0,0,0,0,0,0,0,0,0,0,0,0,0,0,0,0,0,0,0,0,0,0,0,0,0,0,0,0,0,0,0,0,0,0,0,0,0,0,0,0,0,0,0,0,0,0,0,0,0,0,0,0,0,0,0,0,0,0,0,0,0,0,0,0,0,0,0,0,0,0,0,0,0,0,0,0,0,0,0,0,0,0,0,0,0,0,0,0,0,0,0,0,0,0,0,0,0,0,0,0,0,0,0,0,0,0,0,0,0,0,0,0,0,0,0,0,0,0,0,0,0,0,0,0,0,0,0,0,0,0,0,0,0,0,0,0,0,0,0,0,0,0,0,0,0,0,0,0,0,0,0,0],"trees":[{"base_weights":[-1.5317412E-3,7.1025956E-1,-2.2947767E-1,1.0460378E0,5.3208506E-1,-3.99749E-1,2.6719334E-2,1.3560247E-2,9.2065567E-1,2.9156882E-1,5.850579E-1,2.4039094E-1,-4.2363214E-1,2.2981083E-1,-6.1308816E-2,7.890614E-3,9.809641E-3,2.4039093E-3,5.9169997E-3,6.9065033E-3,4.7334624E-3,-9.16206E-4,2.4039093E-3,-1.7195025E-3,-5.007468E-3,2.4039093E-3,8.425101E-4,8.425101E-4,-1.84053E-3],"categories":[],"categories_nodes":[],"categories_segments":[],"categories_sizes":[],"default_left":[0,0,0,0,0,0,0,0,0,0,0,0,0,0,0,0,0,0,0,0,0,0,0,0,0,0,0,0,0],"id":0,"left_children":[1,3,5,7,9,11,13,-1,15,17,19,21,23,25,27,-1,-1,-1,-1,-1,-1,-1,-1,-1,-1,-1,-1,-1,-1],"loss_changes":[7.546485E2,6.468317E1,1.5426314E2,8.824707E0,8.47879E0,4.9390106E1,2.5916847E1,0E0,2.232605E0,8.31574E0,5.483032E0,6.670676E0,3.9741974E1,3.217949E0,2.407081E1,0E0,0E0,0E0,0E0,0E0,0E0,0E0,0E0,0E0,0E0,0E0,0E0,0E0,0E0],"parents":[2147483647,0,0,1,1,2,2,3,3,4,4,5,5,6,6,8,8,9,9,10,10,11,11,12,12,13,13,14,14],"right_children":[2,4,6,8,10,12,14,-1,16,18,20,22,24,26,28,-1,-1,-1,-1,-1,-1,-1,-1,-1,-1,-1,-1,-1,-1],"split_conditions":[2.2194877E-1,1.8997887E-1,7.5204086E-1,7.8979594E-1,7.5E-1,1.00264296E-1,2.4838276E-1,1.3560247E-2,1E0,4.56E-1,7.72449E-1,5.908163E-1,2.4154346E-1,6.9857436E-1,1.00264296E-1,7.890614E-3,9.809641E-3,2.4039093E-3,5.9169997E-3,6.9065033E-3,4.7334624E-3,-9.16206E-4,2.4039093E-3,-1.7195025E-3,-5.007468E-3,2.4039093E-3,8.425101E-4,8.425101E-4,-1.84053E-3],"split_indices":[0,0,1,1,1,2,0,0,10,4,1,1,0,3,2,0,0,0,0,0,0,0,0,0,0,0,0,0,0],"split_type":[0,0,0,0,0,0,0,0,0,0,0,0,0,0,0,0,0,0,0,0,0,0,0,0,0,0,0,0,0],"sum_hessian":[4.632523E3,1.1200505E3,3.5124724E3,3.7790472E2,7.4214575E2,2.1107478E3,1.4017246E3,9.24027E1,2.8550204E2,1.432295E2,5.9891626E2,3.689728E1,2.0738506E3,4.248504E2,9.7687415E2,1.2015542E1,2.7348648E2,8.022767E1,6.3001846E1,2.89968E2,3.0894827E2,1.244087E1,2.4456413E1,4.9322205E2,1.5806285E3,3.8843164E2,3.641879E1,3.6142325E2,6.154509E2],"tree_param":{"num_deleted":"0","num_feature":"15","num_nodes":"29","size_leaf_vector":"1"}},{"base_weights":[3.939685E-3,6.856462E-1,-2.1466637E-1,9.794324E-1,4.927722E-1,-3.9217937E-1,5.1321644E-2,1.044738E0,7.3610228E-3,5.73199E-1,3.239588E-1,2.354899E-1,-4.1517693E-1,2.354899E-1,-5.206052E-2,1.0813224E-2,7.3610228E-3,7.3610228E-3,4.4857888E-3,2.354899E-3,4.4857888E-3,-8.984351E-4,2.354899E-3,-1.6380432E-3,-4.9245046E-3,2.354899E-3,9.171469E-4,9.171469E-4,-1.8335008E-3],"categories":[],"categories_nodes":[],"categories_segments":[],"categories_sizes":[],"default_left":[0,0,0,0,0,0,0,0,0,0,0,0,0,0,0,0,0,0,0,0,0,0,0,0,0,0,0,0,0],"id":1,"left_children":[1,3,5,7,9,11,13,15,-1,17,19,21,23,25,27,-1,-1,-1,-1,-1,-1,-1,-1,-1,-1,-1,-1,-1,-1],"loss_changes":[6.946186E2,6.1671265E1,1.6694836E2,7.243225E0,8.402649E0,4.581418E1,3.4115692E1,5.166168E0,0E0,1.504303E1,7.514309E0,7.531518E0,3.9710938E1,2.7022247E0,2.6988594E1,0E0,0E0,0E0,0E0,0E0,0E0,0E0,0E0,0E0,0E0,0E0,0E0,0E0,0E0],"parents":[2147483647,0,0,1,1,2,2,3,3,4,4,5,5,6,6,7,7,9,9,10,10,11,11,12,12,13,13,14,14],"right_children":[2,4,6,8,10,12,14,16,-1,18,20,22,24,26,28,-1,-1,-1,-1,-1,-1,-1,-1,-1,-1,-1,-1,-1,-1],"split_conditions":[2.2194877E-1,1.937755E-1,7.5204086E-1,5.7637477E-1,2.1449387E-1,1.00264296E-1,2.4838276E-1,8.285715E-1,7.3610228E-3,3.36E-1,5.112016E-1,6.377551E-1,2.4154346E-1,7.2E-1,1.00264296E-1,1.0813224E-2,7.3610228E-3,7.3610228E-3,4.4857888E-3,2.354899E-3,4.4857888E-3,-8.984351E-4,2.354899E-3,-1.6380432E-3,-4.9245046E-3,2.354899E-3,9.171469E-4,9.171469E-4,-1.8335008E-3],"split_indices":[0,0,1,3,0,2,0,1,0,4,3,1,0,4,2,0,0,0,0,0,0,0,0,0,0,0,0,0,0],"split_type":[0,0,0,0,0,0,0,0,0,0,0,0,0,0,0,0,0,0,0,0,0,0,0,0,0,0,0,0,0],"sum_hessian":[4.635954E3,1.124179E3,3.511775E3,4.3540045E2,6.887785E2,2.1070056E3,1.4047694E3,3.718552E2,6.3545273E1,4.5439343E2,2.3438506E2,3.7897636E1,2.069108E3,4.2693362E2,9.7783575E2,3.616815E2,1.0173688E1,1.6599675E2,2.8839667E2,1.2297914E2,1.11405914E2,1.5573475E1,2.2324162E1,4.9321317E2,1.5758948E3,3.9869882E2,2.8234808E1,3.60523E2,6.1731274E2],"tree_param":{"num_deleted":"0","num_feature":"15","num_nodes":"29","size_leaf_vector":"1"}},{"base_weights":[-3.0182162E-3,6.3032204E-1,-2.2683741E-1,9.4374704E-1,4.7544995E-1,-4.0127274E-1,3.5402324E-2,1.2470124E0,7.984501E-1,2.0174232E-1,5.2824163E-1,2.0174232E-1,-4.2214036E-1,2.0174232E-1,-6.6917926E-2,7.7960216E-3,1.3559998E-2,8.663613E-3,7.0959846E-3,2.0174233E-3,7.0959846E-3,6.1443183E-3,4.2159213E-3,-1.1019901E-3,2.0174233E-3,-1.6736742E-3,-4.8723407E-3,2.0174233E-3,6.7412195E-4,6.7412195E-4,-2.2696275E-3],"categories":[],"categories_nodes":[],"categories_segments":[],"categories_sizes":[],"default_left":[0,0,0,0,0,0,0,0,0,0,0,0,0,0,0,0,0,0,0,0,0,0,0,0,0,0,0,0,0,0,0],"id":2,"left_children":[1,3,5,7,9,11,13,15,17,19,21,23,25,27,29,-1,-1,-1,-1,-1,-1,-1,-1,-1,-1,-1,-1,-1,-1,-1,-1],"loss_changes":[6.59262E2,5.6689606E1,1.5778915E2,1.25065E1,1.3118423E1,3.8035736E1,2.7999054E1,2.775116E-1,1.8096771E0,8.986236E0,5.137909E0,7.514949E0,3.2991882E1,2.6481304E0,3.1256174E1,0E0,0E0,0E0,0E0,0E0,0E0,0E0,0E0,0E0,0E0,0E0,0E0,0E0,0E0,0E0,0E0],"parents":[2147483647,0,0,1,1,2,2,3,3,4,4,5,5,6,6,7,7,8,8,9,9,10,10,11,11,12,12,13,13,14,14],"right_children":[2,4,6,8,10,12,14,16,18,20,22,24,26,28,30,-1,-1,-1,-1,-1,-1,-1,-1,-1,-1,-1,-1,-1,-1,-1,-1],"split_conditions":[2.2383757E-1,1.8997887E-1,7.5204086E-1,7.9285717E-1,7.4489796E-1,1.00264296E-1,2.5320277E-1,7.785714E-1,8.2448983E-1,6.24E-1,7.72449E-1,6.377551E-1,2.4044554E-1,1E0,1.00264296E-1,7.7960216E-3,1.3559998E-2,8.663613E-3,7.0959846E-3,2.0174233E-3,7.0959846E-3,6.1443183E-3,4.2159213E-3,-1.1019901E-3,2.0174233E-3,-1.6736742E-3,-4.8723407E-3,2.0174233E-3,6.7412195E-4,6.7412195E-4,-2.2696275E-3],"split_indices":[0,0,1,1,1,2,0,1,1,4,1,1,0,7,2,0,0,0,0,0,0,0,0,0,0,0,0,0,0,0,0],"split_type":[0,0,0,0,0,0,0,0,0,0,0,0,0,0,0,0,0,0,0,0,0,0,0,0,0,0,0,0,0,0,0],"sum_hessian":[4.631509E3,1.2058293E3,3.4256792E3,3.8822565E2,8.1760376E2,2.057947E3,1.3677324E3,1.11243E2,2.7698267E2,1.2052929E2,6.9707446E2,3.755863E1,2.0203883E3,4.6782538E2,8.9990704E2,3.04773E1,8.076569E1,2.5614825E2,2.0834393E1,9.5674034E1,2.4855255E1,3.6716354E2,3.2991092E2,1.550814E1,2.2050491E1,4.1791452E2,1.6024738E3,4.5364227E2,1.4183095E1,3.5921902E2,5.40688E2],"tree_param":{"num_deleted":"0","num_feature":"15","num_nodes":"31","size_leaf_vector":"1"}},{"base_weights":[1.3925604E-3,5.786665E-1,-2.481434E-1,9.198665E-1,3.939695E-1,-4.1805986E-1,9.38368E-3,1.0770218E0,7.8273064E-1,1.6526155E-1,5.1176447E-1,1.6526155E-1,-4.446606E-1,-4.309968E-2,1.6526155E-1,1.3502414E-2,8.552637E-3,6.5691797E-3,8.35391E-3,1.6526155E-3,4.277307E-3,5.79368E-3,2.3063794E-3,-1.3969952E-3,1.6526155E-3,-2.9779389E-3,-5.1549673E-3,1.3347334E-3,-1.6958943E-3,1.6526155E-3,-0E0],"categories":[],"categories_nodes":[],"categories_segments":[],"categories_sizes":[],"default_left":[0,0,0,0,0,0,0,0,0,0,0,0,0,0,0,0,0,0,0,0,0,0,0,0,0,0,0,0,0,0,0],"id":3,"left_children":[1,3,5,7,9,11,13,15,17,19,21,23,25,27,29,-1,-1,-1,-1,-1,-1,-1,-1,-1,-1,-1,-1,-1,-1,-1,-1],"loss_changes":[6.70532E2,8.669104E1,1.4252753E2,6.2943115E0,2.865512E1,4.8018158E1,2.1272472E1,7.007263E0,2.0765533E0,5.1712933E0,1.1257629E1,5.9399815E0,1.9095459E1,2.7435892E1,4.31345E-1,0E0,0E0,0E0,0E0,0E0,0E0,0E0,0E0,0E0,0E0,0E0,0E0,0E0,0E0,0E0,0E0],"parents":[2147483647,0,0,1,1,2,2,3,3,4,4,5,5,6,6,7,7,8,8,9,9,10,10,11,11,12,12,13,13,14,14],"right_children":[2,4,6,8,10,12,14,16,18,20,22,24,26,28,30,-1,-1,-1,-1,-1,-1,-1,-1,-1,-1,-1,-1,-1,-1,-1,-1],"split_conditions":[2.286012E-1,1.9617228E-1,7.5204086E-1,7.969388E-1,7.5E-1,1.00264296E-1,8.472505E-1,3.6E-1,1E0,6.08E-1,6.24E-1,6.377551E-1,2.5118178E-1,2.6140153E-1,9.2755103E-1,1.3502414E-2,8.552637E-3,6.5691797E-3,8.35391E-3,1.6526155E-3,4.277307E-3,5.79368E-3,2.3063794E-3,-1.3969952E-3,1.6526155E-3,-2.9779389E-3,-5.1549673E-3,1.3347334E-3,-1.6958943E-3,1.6526155E-3,-0E0],"split_indices":[0,0,1,1,1,2,3,4,10,4,4,1,0,0,1,0,0,0,0,0,0,0,0,0,0,0,0,0,0,0,0],"split_type":[0,0,0,0,0,0,0,0,0,0,0,0,0,0,0,0,0,0,0,0,0,0,0,0,0,0,0,0,0,0,0],"sum_hessian":[4.6310977E3,1.396911E3,3.2341868E3,4.8170914E2,9.152018E2,1.9490013E3,1.2851854E3,2.0510358E2,2.7660556E2,2.8146573E2,6.337361E2,3.742083E1,1.9115806E3,1.1934354E3,9.174994E1,7.847012E1,1.2663346E2,1.203807E1,2.645675E2,2.1703752E2,6.4428215E1,5.0373868E2,1.2999738E2,1.575875E1,2.166208E1,6.350497E2,1.2765309E3,4.9469104E2,6.9874445E2,7.92289E1,1.2521043E1],"tree_param":{"num_deleted":"0","num_feature":"15","num_nodes":"31","size_leaf_vector":"1"}},{"base_weights":[5.8136703E-3,6.560441E-1,-2.0955957E-1,9.7326463E-1,4.8457673E-1,-3.939897E-1,4.5821823E-2,1.016195E0,7.2892066E-3,5.495038E-1,3.310856E-1,2.2324228E-1,-4.1709563E-1,2.2324228E-1,-4.4993952E-2,1.1938238E-2,9.163251E-3,7.2892066E-3,4.4029467E-3,2.2324228E-3,4.4029467E-3,-9.692667E-4,2.2324228E-3,-1.6054928E-3,-4.8646596E-3,2.2324228E-3,8.9124165E-4,8.9124165E-4,-1.7217144E-3],"categories":[],"categories_nodes":[],"categories_segments":[],"categories_sizes":[],"default_left":[0,0,0,0,0,0,0,0,0,0,0,0,0,0,0,0,0,0,0,0,0,0,0,0,0,0,0,0,0],"id":4,"left_children":[1,3,5,7,9,11,13,15,-1,17,19,21,23,25,27,-1,-1,-1,-1,-1,-1,-1,-1,-1,-1,-1,-1,-1,-1],"loss_changes":[6.521671E2,6.0665894E1,1.6506868E2,5.40979E0,6.599579E0,4.390805E1,2.7565018E1,1.4393005E0,0E0,1.5276154E1,5.1266975E0,6.365631E0,3.4849792E1,3.7452068E0,2.6394686E1,0E0,0E0,0E0,0E0,0E0,0E0,0E0,0E0,0E0,0E0,0E0,0E0,0E0,0E0],"parents":[2147483647,0,0,1,1,2,2,3,3,4,4,5,5,6,6,7,7,9,9,10,10,11,11,12,12,13,13,14,14],"right_children":[2,4,6,8,10,12,14,16,-1,18,20,22,24,26,28,-1,-1,-1,-1,-1,-1,-1,-1,-1,-1,-1,-1,-1,-1],"split_conditions":[2.2194877E-1,1.8997887E-1,7.5E-1,8.285715E-1,2.1449387E-1,1.00264296E-1,2.4838276E-1,7.9285717E-1,7.2892066E-3,2.72E-1,3.12E-1,6.377551E-1,2.3997453E-1,6.24E-1,1.00264296E-1,1.1938238E-2,9.163251E-3,7.2892066E-3,4.4029467E-3,2.2324228E-3,4.4029467E-3,-9.692667E-4,2.2324228E-3,-1.6054928E-3,-4.8646596E-3,2.2324228E-3,8.9124165E-4,8.9124165E-4,-1.7217144E-3],"split_indices":[0,0,1,1,0,2,0,1,0,4,4,1,0,4,2,0,0,0,0,0,0,0,0,0,0,0,0,0,0],"split_type":[0,0,0,0,0,0,0,0,0,0,0,0,0,0,0,0,0,0,0,0,0,0,0,0,0,0,0,0,0],"sum_hessian":[4.6315557E3,1.1509999E3,3.4805554E3,3.9360495E2,7.5739496E2,2.0217208E3,1.4588347E3,3.8007428E2,1.3530677E1,5.1860767E2,2.387873E2,3.604606E1,1.9856747E3,4.492299E2,1.00960486E3,1.13471535E2,2.6660272E2,1.4748843E2,3.7111923E2,8.22865E1,1.565008E2,1.5155691E1,2.0890368E1,4.292401E2,1.5564346E3,3.5870206E2,9.052783E1,3.638518E2,6.4575305E2],"tree_param":{"num_deleted":"0","num_feature":"15","num_nodes":"29","size_leaf_vector":"1"}},{"base_weights":[1.8100391E-4,5.712207E-1,-2.4152105E-1,9.004502E-1,4.0403292E-1,-4.1198042E-1,1.43657895E-2,9.6543705E-1,6.5224157E-3,1.7629087E-1,4.898138E-1,1.6484982E-1,-4.368887E-1,-3.642161E-2,1.6484981E-3,1.0032956E-2,6.5224157E-3,5.3781695E-3,1.6484981E-3,6.0888804E-3,3.6623073E-3,-1.3601944E-3,1.6484981E-3,-2.875817E-3,-4.982196E-3,1.564488E-3,-1.7130723E-3],"categories":[],"categories_nodes":[],"categories_segments":[],"categories_sizes":[],"default_left":[0,0,0,0,0,0,0,0,0,0,0,0,0,0,0,0,0,0,0,0,0,0,0,0,0,0,0],"id":5,"left_children":[1,3,5,7,9,11,13,15,-1,17,19,21,23,25,-1,-1,-1,-1,-1,-1,-1,-1,-1,-1,-1,-1,-1],"loss_changes":[6.424717E2,7.4375885E1,1.4296524E2,8.2308655E0,1.7539993E1,4.392627E1,2.0105206E1,6.5773315E0,0E0,7.713211E0,8.703369E0,6.1502047E0,1.6790955E1,3.226598E1,0E0,0E0,0E0,0E0,0E0,0E0,0E0,0E0,0E0,0E0,0E0,0E0,0E0],"parents":[2147483647,0,0,1,1,2,2,3,3,4,4,5,5,6,6,7,7,9,9,10,10,11,11,12,12,13,13],"right_children":[2,4,6,8,10,12,14,16,-1,18,20,22,24,26,-1,-1,-1,-1,-1,-1,-1,-1,-1,-1,-1,-1,-1],"split_conditions":[2.2771937E-1,1.937755E-1,7.5204086E-1,5.7637477E-1,7.5E-1,1.00264296E-1,8.472505E-1,8.285715E-1,6.5224157E-3,2.1449387E-1,7.72449E-1,6.377551E-1,2.4838276E-1,2.6010358E-1,1.6484981E-3,1.0032956E-2,6.5224157E-3,5.3781695E-3,1.6484981E-3,6.0888804E-3,3.6623073E-3,-1.3601944E-3,1.6484981E-3,-2.875817E-3,-4.982196E-3,1.564488E-3,-1.7130723E-3],"split_indices":[0,0,1,3,1,2,3,1,0,0,1,1,0,0,0,0,0,0,0,0,0,0,0,0,0,0,0],"split_type":[0,0,0,0,0,0,0,0,0,0,0,0,0,0,0,0,0,0,0,0,0,0,0,0,0,0,0],"sum_hessian":[4.630707E3,1.3763336E3,3.2543733E3,4.5413373E2,9.221999E2,1.9537428E3,1.3006305E3,3.876344E2,6.6499306E1,2.5968594E2,6.62514E2,3.7252377E1,1.9164905E3,1.2071433E3,9.348721E1,3.7753156E2,1.0102852E1,4.647702E1,2.1320891E2,3.2329132E2,3.3922266E2,1.5248491E1,2.2003887E1,5.7104956E2,1.3454409E3,4.9341107E2,7.1373224E2],"tree_param":{"num_deleted":"0","num_feature":"15","num_nodes":"27","size_leaf_vector":"1"}},{"base_weights":[-2.8536937E-3,-3.5275236E-1,3.0337304E-1,1.1891509E-2,-3.6554414E-1,3.497E-1,-1.5885632E-1,-4.845176E-1,-1.9301757E-1,1.4973254E0,3.27124E-1,1.3935593E-1,-3.5956466E-1,6.3210225E-4,-4.956393E-3,-3.332479E-3,-1.3316848E-3,2.2503393E-2,9.122247E-3,-3.1157888E-5,3.566429E-3,6.2281913E-3,-9.40374E-4,-1.424923E-3,-4.468659E-3],"categories":[],"categories_nodes":[],"categories_segments":[],"categories_sizes":[],"default_left":[0,0,0,0,0,0,0,0,0,0,0,0,0,0,0,0,0,0,0,0,0,0,0,0,0],"id":6,"left_children":[1,3,5,-1,7,9,11,13,15,17,19,21,23,-1,-1,-1,-1,-1,-1,-1,-1,-1,-1,-1,-1],"loss_changes":[4.9850342E2,4.6494873E1,5.383116E1,0E0,4.368448E1,5.699887E1,1.4721706E1,8.461365E0,7.3340836E0,1.2078743E1,2.2015976E1,1.24491E1,2.184538E0,0E0,0E0,0E0,0E0,0E0,0E0,0E0,0E0,0E0,0E0,0E0,0E0],"parents":[2147483647,0,0,1,1,2,2,4,4,5,5,6,6,7,7,8,8,9,9,10,10,11,11,12,12],"right_children":[2,4,6,-1,8,10,12,14,16,18,20,22,24,-1,-1,-1,-1,-1,-1,-1,-1,-1,-1,-1,-1],"split_conditions":[7.5E-1,8.2203366E-2,8.663266E-1,1.1891509E-2,7.265307E-1,7.179092E-2,5.0394002E-2,1.037451E-1,2.56E-1,8.2448983E-1,1E0,9.183673E-1,6.0717836E-2,6.3210225E-4,-4.956393E-3,-3.332479E-3,-1.3316848E-3,2.2503393E-2,9.122247E-3,-3.1157888E-5,3.566429E-3,6.2281913E-3,-9.40374E-4,-1.424923E-3,-4.468659E-3],"split_indices":[1,2,1,0,1,2,2,2,4,1,10,1,2,0,0,0,0,0,0,0,0,0,0,0,0],"split_type":[0,0,0,0,0,0,0,0,0,0,0,0,0,0,0,0,0,0,0,0,0,0,0,0,0],"sum_hessian":[4.629813E3,2.161995E3,2.467818E3,1.3362092E1,2.148633E3,2.2460845E3,2.2173341E2,1.2629032E3,8.8572974E2,3.6176575E1,2.209908E3,8.7810585E1,1.3392284E2,2.2877693E1,1.2400255E3,2.5311517E2,6.3261456E2,1.1101189E1,2.5075386E1,1.7891454E2,2.0309934E3,2.7268045E1,6.054254E1,4.5472397E1,8.845043E1],"tree_param":{"num_deleted":"0","num_feature":"15","num_nodes":"25","size_leaf_vector":"1"}},{"base_weights":[2.5740846E-3,6.154823E-1,-2.2130114E-1,9.176544E-1,4.647197E-1,-3.9709067E-1,3.744182E-2,9.865327E-1,6.91187E-3,5.746816E-1,2.737933E-1,1.9709057E-1,-4.1974482E-1,1.8919091E-1,-7.297571E-2,1.0259599E-2,6.91187E-3,6.91187E-3,4.242374E-3,1.9709056E-3,4.242374E-3,-1.1132712E-3,1.9709056E-3,-1.9216338E-3,-4.7575394E-3,1.9709056E-3,5.8107596E-4,5.8107596E-4,-2.686818E-3],"categories":[],"categories_nodes":[],"categories_segments":[],"categories_sizes":[],"default_left":[0,0,0,0,0,0,0,0,0,0,0,0,0,0,0,0,0,0,0,0,0,0,0,0,0,0,0,0,0],"id":7,"left_children":[1,3,5,7,9,11,13,15,-1,17,19,21,23,25,27,-1,-1,-1,-1,-1,-1,-1,-1,-1,-1,-1,-1,-1,-1],"loss_changes":[6.3984753E2,5.472516E1,1.5565994E2,7.1831665E0,1.6825775E1,4.1249176E1,2.3742447E1,1.7244568E0,0E0,1.3731049E1,1.0514765E1,6.919836E0,2.4759521E1,2.873434E0,3.357633E1,0E0,0E0,0E0,0E0,0E0,0E0,0E0,0E0,0E0,0E0,0E0,0E0,0E0,0E0],"parents":[2147483647,0,0,1,1,2,2,3,3,4,4,5,5,6,6,7,7,9,9,10,10,11,11,12,12,13,13,14,14],"right_children":[2,4,6,8,10,12,14,16,-1,18,20,22,24,26,28,-1,-1,-1,-1,-1,-1,-1,-1,-1,-1,-1,-1,-1,-1],"split_conditions":[2.2383757E-1,1.8997887E-1,7.5204086E-1,8.193878E-1,2.1449387E-1,1.00264296E-1,2.6140153E-1,5.7637477E-1,6.91187E-3,7.72449E-1,4.56E-1,6.377551E-1,2.3997453E-1,7.12E-1,1.00264296E-1,1.0259599E-2,6.91187E-3,6.91187E-3,4.242374E-3,1.9709056E-3,4.242374E-3,-1.1132712E-3,1.9709056E-3,-1.9216338E-3,-4.7575394E-3,1.9709056E-3,5.8107596E-4,5.8107596E-4,-2.686818E-3],"split_indices":[0,0,1,1,0,2,0,3,0,1,4,1,0,4,2,0,0,0,0,0,0,0,0,0,0,0,0,0,0],"split_type":[0,0,0,0,0,0,0,0,0,0,0,0,0,0,0,0,0,0,0,0,0,0,0,0,0,0,0,0,0],"sum_hessian":[4.638108E3,1.2397467E3,3.3983613E3,4.0198492E2,8.377617E2,2.0242683E3,1.374093E3,3.4244522E2,5.9539703E1,5.2189496E2,3.1586676E2,3.7515034E1,1.9867533E3,5.81043E2,7.9305E2,3.0142215E2,4.1023094E1,2.771527E2,2.4474225E2,1.756301E2,1.4023668E2,1.570908E1,2.1805952E1,4.002855E2,1.5864678E3,5.368691E2,4.417399E1,3.5873935E2,4.3431064E2],"tree_param":{"num_deleted":"0","num_feature":"15","num_nodes":"29","size_leaf_vector":"1"}},{"base_weights":[3.2604164E-3,-3.3079034E-1,2.93347E-1,1.4427726E-2,-3.4610647E-1,4.1078773E-1,-3.8547402E-3,-4.661912E-1,-1.7467058E-1,3.0657908E-2,6.458972E-1,-6.967823E-2,1.2943225E0,-4.837659E-3,5.48333E-3,-9.2078245E-4,-3.8034122E-3,1.8764608E-2,-1.474731E-4,7.5364797E-3,3.970245E-3,-2.1890088E-3,4.945546E-4,1.7179338E-2,4.224038E-3],"categories":[],"categories_nodes":[],"categories_segments":[],"categories_sizes":[],"default_left":[0,0,0,0,0,0,0,0,0,0,0,0,0,0,0,0,0,0,0,0,0,0,0,0,0],"id":8,"left_children":[1,3,5,-1,7,9,11,13,15,17,19,21,23,-1,-1,-1,-1,-1,-1,-1,-1,-1,-1,-1,-1],"loss_changes":[4.5169308E2,6.2966507E1,8.755766E1,0E0,4.370459E1,1.5946442E2,6.2421196E1,2.7116333E1,1.5152748E1,6.352986E1,2.7920685E1,1.2692524E1,8.361362E0,0E0,0E0,0E0,0E0,0E0,0E0,0E0,0E0,0E0,0E0,0E0,0E0],"parents":[2147483647,0,0,1,1,2,2,4,4,5,5,6,6,7,7,8,8,9,9,10,10,11,11,12,12],"right_children":[2,4,6,-1,8,10,12,14,16,18,20,22,24,-1,-1,-1,-1,-1,-1,-1,-1,-1,-1,-1,-1],"split_conditions":[7.5E-1,8.2203366E-2,6.6700613E-1,1.4427726E-2,7.265307E-1,3.543788E-1,8.9714867E-1,8.0957234E-1,6.059063E-1,8.452139E-2,5.855397E-1,7.8877556E-1,8.72449E-1,-4.837659E-3,5.48333E-3,-9.2078245E-4,-3.8034122E-3,1.8764608E-2,-1.474731E-4,7.5364797E-3,3.970245E-3,-2.1890088E-3,4.945546E-4,1.7179338E-2,4.224038E-3],"split_indices":[1,2,3,0,1,3,3,3,3,3,3,1,1,0,0,0,0,0,0,0,0,0,0,0,0],"split_type":[0,0,0,0,0,0,0,0,0,0,0,0,0,0,0,0,0,0,0,0,0,0,0,0,0],"sum_hessian":[4.6388257E3,2.1541055E3,2.4847205E3,1.3894329E1,2.140211E3,1.7820057E3,7.027147E2,1.250118E3,8.90093E2,6.847664E2,1.0972393E3,6.740398E2,2.8674942E1,1.2345715E3,1.5546518E1,6.436996E2,2.4639346E2,1.2128062E1,6.7263837E2,7.558364E2,3.4140286E2,3.0109967E2,3.7294012E2,1.5261816E1,1.3413126E1],"tree_param":{"num_deleted":"0","num_feature":"15","num_nodes":"25","size_leaf_vector":"1"}},{"base_weights":[-1.8959813E-4,6.2045777E-1,-2.0332672E-1,8.968182E-1,4.594208E-1,-3.7501177E-1,4.5780305E-2,1.1659257E-2,7.6720244E-1,5.1943946E-1,2.8918135E-1,2.0856553E-1,-3.974379E-1,2.0856553E-1,-4.9087662E-2,8.209017E-3,6.7811953E-3,6.747911E-3,4.043104E-3,2.0856552E-3,4.043104E-3,-9.443618E-4,2.0856552E-3,-1.6158932E-3,-4.7405395E-3,2.0856552E-3,7.9738937E-4,7.9738937E-4,-1.8101484E-3],"categories":[],"categories_nodes":[],"categories_segments":[],"categories_sizes":[],"default_left":[0,0,0,0,0,0,0,0,0,0,0,0,0,0,0,0,0,0,0,0,0,0,0,0,0,0,0,0,0],"id":9,"left_children":[1,3,5,7,9,11,13,-1,15,17,19,21,23,25,27,-1,-1,-1,-1,-1,-1,-1,-1,-1,-1,-1,-1,-1,-1],"loss_changes":[5.8745123E2,4.9028748E1,1.5072426E2,1.01128235E1,6.6609955E0,4.117929E1,2.7808409E1,0E0,1.2211304E0,1.3358398E1,4.7184887E0,7.129668E0,3.6305145E1,2.3225346E0,2.6011843E1,0E0,0E0,0E0,0E0,0E0,0E0,0E0,0E0,0E0,0E0,0E0,0E0,0E0,0E0],"parents":[2147483647,0,0,1,1,2,2,3,3,4,4,5,5,6,6,8,8,9,9,10,10,11,11,12,12,13,13,14,14],"right_children":[2,4,6,8,10,12,14,-1,16,18,20,22,24,26,28,-1,-1,-1,-1,-1,-1,-1,-1,-1,-1,-1,-1,-1,-1],"split_conditions":[2.2080605E-1,1.8997887E-1,7.5204086E-1,7.9285717E-1,2.1449387E-1,1.00264296E-1,2.4838276E-1,1.1659257E-2,8.285715E-1,7.72449E-1,5.641548E-1,6.377551E-1,2.4154346E-1,8.153061E-1,1.00264296E-1,8.209017E-3,6.7811953E-3,6.747911E-3,4.043104E-3,2.0856552E-3,4.043104E-3,-9.443618E-4,2.0856552E-3,-1.6158932E-3,-4.7405395E-3,2.0856552E-3,7.9738937E-4,7.9738937E-4,-1.8101484E-3],"split_indices":[0,0,1,1,0,2,0,0,1,1,3,1,0,1,2,0,0,0,0,0,0,0,0,0,0,0,0,0,0],"split_type":[0,0,0,0,0,0,0,0,0,0,0,0,0,0,0,0,0,0,0,0,0,0,0,0,0,0,0,0,0],"sum_hessian":[4.639722E3,1.1403628E3,3.4993591E3,4.0915112E2,7.312116E2,2.0724854E3,1.4268739E3,1.1750227E2,2.9164886E2,5.286895E2,2.0252208E2,3.831429E1,2.0341711E3,4.508069E2,9.7606696E2,2.778847E2,1.3764159E1,2.8120807E2,2.4748146E2,1.367529E2,6.576918E1,1.5971965E1,2.2342321E1,5.0578915E2,1.528382E3,4.2994534E2,2.0861542E1,3.6244238E2,6.136246E2],"tree_param":{"num_deleted":"0","num_feature":"15","num_nodes":"29","size_leaf_vector":"1"}},{"base_weights":[-2.1566213E-3,5.2531695E-1,-2.3630916E-1,8.385847E-1,3.926799E-1,-4.0150556E-1,6.5516434E-3,8.7908405E-1,6.156323E-3,1.4450389E-1,4.669553E-1,1.4450389E-1,-4.30904E-1,1.4450389E-1,-8.47213E-2,9.19497E-3,6.156323E-3,1.4450388E-3,4.866923E-3,1.7119835E-3,5.0084507E-3,-1.4320005E-3,1.4450388E-3,-2.0497392E-3,-4.8296195E-3,1.4450388E-3,2.9891296E-4,2.9891296E-4,-2.779949E-3],"categories":[],"categories_nodes":[],"categories_segments":[],"categories_sizes":[],"default_left":[0,0,0,0,0,0,0,0,0,0,0,0,0,0,0,0,0,0,0,0,0,0,0,0,0,0,0,0,0],"id":10,"left_children":[1,3,5,7,9,11,13,15,-1,17,19,21,23,25,27,-1,-1,-1,-1,-1,-1,-1,-1,-1,-1,-1,-1,-1,-1],"loss_changes":[5.742404E2,5.774518E1,1.2971107E2,5.444092E0,2.2323303E1,4.3783997E1,1.896094E1,2.7193604E0,0E0,5.9762135E0,7.470398E0,8.787807E0,2.1175018E1,2.9499397E0,3.3208885E1,0E0,0E0,0E0,0E0,0E0,0E0,0E0,0E0,0E0,0E0,0E0,0E0,0E0,0E0],"parents":[2147483647,0,0,1,1,2,2,3,3,4,4,5,5,6,6,7,7,9,9,10,10,11,11,12,12,13,13,14,14],"right_children":[2,4,6,8,10,12,14,16,-1,18,20,22,24,26,28,-1,-1,-1,-1,-1,-1,-1,-1,-1,-1,-1,-1,-1,-1],"split_conditions":[2.281323E-1,1.8997887E-1,7.5204086E-1,8.285715E-1,7.4489796E-1,1.10113434E-1,2.5967723E-1,5.7637477E-1,6.156323E-3,6.24E-1,3.503055E-1,6.377551E-1,2.4154346E-1,7.12E-1,1.00264296E-1,9.19497E-3,6.156323E-3,1.4450388E-3,4.866923E-3,1.7119835E-3,5.0084507E-3,-1.4320005E-3,1.4450388E-3,-2.0497392E-3,-4.8296195E-3,1.4450388E-3,2.9891296E-4,2.9891296E-4,-2.779949E-3],"split_indices":[0,0,1,1,1,2,0,3,0,4,3,1,0,4,2,0,0,0,0,0,0,0,0,0,0,0,0,0,0],"split_type":[0,0,0,0,0,0,0,0,0,0,0,0,0,0,0,0,0,0,0,0,0,0,0,0,0,0,0,0,0],"sum_hessian":[4.6293877E3,1.4200237E3,3.2093643E3,4.1223596E2,1.00778766E3,1.9106035E3,1.2987606E3,3.9838882E2,1.3847135E1,1.9857118E2,8.092165E2,5.836365E1,1.8522399E3,4.8268735E2,8.1607324E2,3.4732526E2,5.1063553E1,1.5748604E2,4.108515E1,8.933689E1,7.198796E2,2.118692E1,3.717673E1,3.550834E2,1.4971565E3,4.4618488E2,3.650246E1,3.6099667E2,4.550766E2],"tree_param":{"num_deleted":"0","num_feature":"15","num_nodes":"29","size_leaf_vector":"1"}},{"base_weights":[-2.4680945E-3,5.861547E-1,-2.0809609E-1,8.483907E-1,4.4082192E-1,-3.9017454E-1,3.8331866E-2,1.0957587E0,7.2655827E-1,5.0889534E-1,2.7913365E-1,1.890293E-1,-4.1610214E-1,1.890293E-1,-7.445407E-2,6.4460626E-3,1.1619508E-2,8.625071E-3,6.4460626E-3,6.4460626E-3,4.0041883E-3,1.890293E-3,3.9401446E-3,-1.1353642E-3,1.890293E-3,-1.83574E-3,-4.815342E-3,1.890293E-3,5.728762E-4,5.728762E-4,-2.396457E-3],"categories":[],"categories_nodes":[],"categories_segments":[],"categories_sizes":[],"default_left":[0,0,0,0,0,0,0,0,0,0,0,0,0,0,0,0,0,0,0,0,0,0,0,0,0,0,0,0,0,0,0],"id":11,"left_children":[1,3,5,7,9,11,13,15,17,19,21,23,25,27,29,-1,-1,-1,-1,-1,-1,-1,-1,-1,-1,-1,-1,-1,-1,-1,-1],"loss_changes":[5.6233124E2,4.3941772E1,1.5508098E2,8.792877E0,7.82872E0,4.719986E1,2.5540806E1,5.641632E-1,2.032837E0,1.1049423E1,7.4174805E0,5.7870016E0,2.8947052E1,4.5194798E0,2.7586164E1,0E0,0E0,0E0,0E0,0E0,0E0,0E0,0E0,0E0,0E0,0E0,0E0,0E0,0E0,0E0,0E0],"parents":[2147483647,0,0,1,1,2,2,3,3,4,4,5,5,6,6,7,7,8,8,9,9,10,10,11,11,12,12,13,13,14,14],"right_children":[2,4,6,8,10,12,14,16,18,20,22,24,26,28,30,-1,-1,-1,-1,-1,-1,-1,-1,-1,-1,-1,-1,-1,-1,-1,-1],"split_conditions":[2.2194877E-1,1.8997887E-1,7.5E-1,7.9285717E-1,2.1449387E-1,1.00264296E-1,2.6010358E-1,1.92E-1,1.548411E-1,2.72E-1,5.112016E-1,6.377551E-1,2.4044554E-1,7.12E-1,1.00264296E-1,6.4460626E-3,1.1619508E-2,8.625071E-3,6.4460626E-3,6.4460626E-3,4.0041883E-3,1.890293E-3,3.9401446E-3,-1.1353642E-3,1.890293E-3,-1.83574E-3,-4.815342E-3,1.890293E-3,5.728762E-4,5.728762E-4,-2.396457E-3],"split_indices":[0,0,1,1,0,2,0,4,0,4,3,1,0,4,2,0,0,0,0,0,0,0,0,0,0,0,0,0,0,0,0],"split_type":[0,0,0,0,0,0,0,0,0,0,0,0,0,0,0,0,0,0,0,0,0,0,0,0,0,0,0,0,0,0,0],"sum_hessian":[4.625934E3,1.1939792E3,3.4319548E3,4.1467603E2,7.793033E2,1.974325E3,1.4576299E3,1.2094071E2,2.9373532E2,5.3650446E2,2.4279881E2,3.673652E1,1.9375885E3,6.256363E2,8.3199365E2,2.0789846E1,1.0015086E2,1.1809894E2,1.7563637E2,1.5045834E2,3.8604608E2,1.2853685E2,1.1426196E2,1.5190292E1,2.1546225E1,4.3302902E2,1.5045594E3,5.7729785E2,4.8338417E1,3.629182E2,4.690754E2],"tree_param":{"num_deleted":"0","num_feature":"15","num_nodes":"31","size_leaf_vector":"1"}},{"base_weights":[1.1073628E-2,5.310033E-1,-2.230725E-1,8.401171E-1,3.8223717E-1,-3.9078498E-1,2.2648683E-2,9.005462E-1,6.1117713E-3,5.2117145E-1,2.3311336E-1,1.539654E-1,-4.1753677E-1,-2.6570482E-2,1.539654E-1,9.39912E-3,6.1117713E-3,6.1117713E-3,3.7714238E-3,1.539654E-3,3.7714238E-3,-1.3178568E-3,1.539654E-3,-2.6623304E-3,-4.75709E-3,1.513016E-3,-1.5615177E-3,1.539654E-3,-3.1734715E-4],"categories":[],"categories_nodes":[],"categories_segments":[],"categories_sizes":[],"default_left":[0,0,0,0,0,0,0,0,0,0,0,0,0,0,0,0,0,0,0,0,0,0,0,0,0,0,0,0,0],"id":12,"left_children":[1,3,5,7,9,11,13,15,-1,17,19,21,23,25,27,-1,-1,-1,-1,-1,-1,-1,-1,-1,-1,-1,-1,-1,-1],"loss_changes":[5.668662E2,6.4891846E1,1.3263478E2,7.325836E0,1.9794724E1,4.0492096E1,1.7402887E1,6.667389E0,0E0,1.3315582E1,1.27474575E1,8.829002E0,1.5593842E1,2.8488274E1,8.6652184E-1,0E0,0E0,0E0,0E0,0E0,0E0,0E0,0E0,0E0,0E0,0E0,0E0,0E0,0E0],"parents":[2147483647,0,0,1,1,2,2,3,3,4,4,5,5,6,6,7,7,9,9,10,10,11,11,12,12,13,13,14,14],"right_children":[2,4,6,8,10,12,14,16,-1,18,20,22,24,26,28,-1,-1,-1,-1,-1,-1,-1,-1,-1,-1,-1,-1,-1,-1],"split_conditions":[2.281323E-1,1.9255334E-1,7.5204086E-1,5.7637477E-1,2.1449387E-1,1.07220925E-1,8.472505E-1,8.285715E-1,6.1117713E-3,7.72449E-1,4.72E-1,6.377551E-1,2.4755359E-1,2.609756E-1,9.2755103E-1,9.39912E-3,6.1117713E-3,6.1117713E-3,3.7714238E-3,1.539654E-3,3.7714238E-3,-1.3178568E-3,1.539654E-3,-2.6623304E-3,-4.75709E-3,1.513016E-3,-1.5615177E-3,1.539654E-3,-3.1734715E-4],"split_indices":[0,0,1,3,0,2,3,1,0,1,4,1,0,0,1,0,0,0,0,0,0,0,0,0,0,0,0,0,0],"split_type":[0,0,0,0,0,0,0,0,0,0,0,0,0,0,0,0,0,0,0,0,0,0,0,0,0,0,0,0,0],"sum_hessian":[4.631786E3,1.4375616E3,3.1942244E3,4.5733322E2,9.8022845E2,1.8991276E3,1.2950968E3,3.9274744E2,6.458577E1,4.9752173E2,4.8270673E2,4.9916485E1,1.849211E3,1.2012847E3,9.381212E1,3.8144275E2,1.1304694E1,2.738699E2,2.2365184E2,2.8177115E2,2.0093558E2,1.9251064E1,3.066542E1,5.2604974E2,1.3231613E3,5.0269547E2,6.985892E2,8.101729E1,1.2794831E1],"tree_param":{"num_deleted":"0","num_feature":"15","num_nodes":"29","size_leaf_vector":"1"}},{"base_weights":[-6.6042547E-3,5.055593E-1,-2.3816176E-1,7.990017E-1,3.5407743E-1,-4.0640354E-1,7.4207266E-3,5.7653957E-3,8.337242E-1,1.3369879E-1,4.4375065E-1,1.3369879E-1,-4.3507808E-1,1.3369879E-1,-8.568183E-2,8.807768E-3,5.7653957E-3,4.758656E-3,1.3369878E-3,1.3369878E-3,4.7087264E-3,-1.5068965E-3,1.3369878E-3,-2.881376E-3,-5.0748414E-3,1.3369878E-3,2.4008479E-4,2.4008479E-4,-2.5780436E-3],"categories":[],"categories_nodes":[],"categories_segments":[],"categories_sizes":[],"default_left":[0,0,0,0,0,0,0,0,0,0,0,0,0,0,0,0,0,0,0,0,0,0,0,0,0,0,0,0,0],"id":13,"left_children":[1,3,5,7,9,11,13,-1,15,17,19,21,23,25,27,-1,-1,-1,-1,-1,-1,-1,-1,-1,-1,-1,-1,-1,-1],"loss_changes":[5.497814E2,6.268634E1,1.3242969E2,5.598694E0,1.962355E1,4.1159607E1,1.9170532E1,0E0,4.6257324E0,6.781441E0,7.028656E0,8.453762E0,1.871582E1,1.8367577E0,2.6853395E1,0E0,0E0,0E0,0E0,0E0,0E0,0E0,0E0,0E0,0E0,0E0,0E0,0E0,0E0],"parents":[2147483647,0,0,1,1,2,2,3,3,4,4,5,5,6,6,8,8,9,9,10,10,11,11,12,12,13,13,14,14],"right_children":[2,4,6,8,10,12,14,-1,16,18,20,22,24,26,28,-1,-1,-1,-1,-1,-1,-1,-1,-1,-1,-1,-1,-1,-1],"split_conditions":[2.281323E-1,1.937755E-1,7.5204086E-1,1E0,7.5E-1,1.10113434E-1,2.5967723E-1,5.7653957E-3,5.7637477E-1,2.1449387E-1,3.3197558E-1,6.377551E-1,2.5080326E-1,8.163265E-1,1.00264296E-1,8.807768E-3,5.7653957E-3,4.758656E-3,1.3369878E-3,1.3369878E-3,4.7087264E-3,-1.5068965E-3,1.3369878E-3,-2.881376E-3,-5.0748414E-3,1.3369878E-3,2.4008479E-4,2.4008479E-4,-2.5780436E-3],"split_indices":[0,0,1,10,1,2,0,0,3,0,3,1,0,1,2,0,0,0,0,0,0,0,0,0,0,0,0,0,0],"split_type":[0,0,0,0,0,0,0,0,0,0,0,0,0,0,0,0,0,0,0,0,0,0,0,0,0,0,0,0,0],"sum_hessian":[4.6155244E3,1.4338566E3,3.181668E3,4.7865604E2,9.5520056E2,1.8886226E3,1.2930454E3,1.306055E1,4.655955E2,2.7190436E2,6.832962E2,5.879049E1,1.829832E3,4.8214758E2,8.108979E2,3.9820367E2,6.739182E1,4.7840656E1,2.240637E2,4.4144363E1,6.391518E2,2.1961504E1,3.6828987E1,6.1680334E2,1.2130287E3,4.6250375E2,1.9643816E1,3.5846167E2,4.524362E2],"tree_param":{"num_deleted":"0","num_feature":"15","num_nodes":"29","size_leaf_vector":"1"}},{"base_weights":[2.8361406E-5,4.9595854E-1,-2.258701E-1,8.1763667E-1,3.58577E-1,-3.8778973E-1,8.406248E-3,1.0290531E0,6.8288815E-1,1.3504422E-1,4.399794E-1,-4.0462852E-1,1.3504422E-3,-4.447565E-2,1.3504422E-1,5.8810688E-3,1.0863338E-2,5.8810688E-3,8.719336E-3,1.3504422E-3,3.967388E-3,1.3504422E-3,4.6254564E-3,1.3504422E-3,-4.1892244E-3,1.3504422E-3,-1.7726902E-3,1.3504422E-3,-2.546112E-4],"categories":[],"categories_nodes":[],"categories_segments":[],"categories_sizes":[],"default_left":[0,0,0,0,0,0,0,0,0,0,0,0,0,0,0,0,0,0,0,0,0,0,0,0,0,0,0,0,0],"id":14,"left_children":[1,3,5,7,9,11,13,15,17,19,21,23,-1,25,27,-1,-1,-1,-1,-1,-1,-1,-1,-1,-1,-1,-1,-1,-1],"loss_changes":[5.214161E2,6.293747E1,1.2158627E2,8.778717E0,1.8842056E1,2.4695282E1,1.8594019E1,1.3988037E0,2.7980652E0,9.042229E0,6.083435E0,2.29682E1,0E0,2.9588015E1,6.854782E-1,0E0,0E0,0E0,0E0,0E0,0E0,0E0,0E0,0E0,0E0,0E0,0E0,0E0,0E0],"parents":[2147483647,0,0,1,1,2,2,3,3,4,4,5,5,6,6,7,7,8,8,9,9,10,10,11,11,13,13,14,14],"right_children":[2,4,6,8,10,12,14,16,18,20,22,24,-1,26,28,-1,-1,-1,-1,-1,-1,-1,-1,-1,-1,-1,-1,-1,-1],"split_conditions":[2.281323E-1,1.8997887E-1,7.5204086E-1,7.969388E-1,7.5E-1,8.0957234E-1,8.472505E-1,7.755102E-1,5.76E-1,4.56E-1,3.3197558E-1,1.7617108E-1,1.3504422E-3,2.6140153E-1,9.2755103E-1,5.8810688E-3,1.0863338E-2,5.8810688E-3,8.719336E-3,1.3504422E-3,3.967388E-3,1.3504422E-3,4.6254564E-3,1.3504422E-3,-4.1892244E-3,1.3504422E-3,-1.7726902E-3,1.3504422E-3,-2.546112E-4],"split_indices":[0,0,1,1,1,3,3,1,4,4,3,3,0,0,1,0,0,0,0,0,0,0,0,0,0,0,0,0,0],"split_type":[0,0,0,0,0,0,0,0,0,0,0,0,0,0,0,0,0,0,0,0,0,0,0,0,0,0,0,0,0],"sum_hessian":[4.6289634E3,1.4481628E3,3.1808005E3,4.2380008E2,1.0243628E3,1.8814396E3,1.299361E3,1.491628E2,2.746373E2,2.743575E2,7.5000525E2,1.8505444E3,3.0895166E1,1.2048766E3,9.448438E1,2.12698E1,1.27893005E2,1.9694562E2,7.769167E1,1.5363446E2,1.2072305E2,4.33138E1,7.0669147E2,1.9472895E1,1.8310715E3,5.0857385E2,6.9630273E2,8.179739E1,1.2686989E1],"tree_param":{"num_deleted":"0","num_feature":"15","num_nodes":"29","size_leaf_vector":"1"}},{"base_weights":[-9.981634E-4,4.7593245E-1,-2.2843438E-1,6.168817E-1,2.0913963E-1,-3.86972E-1,4.5364187E-4,7.748085E-1,4.8593253E-1,1.2374903E-1,3.8158408E-1,1.2374903E-1,-4.1501835E-1,-4.755415E-2,1.2374903E-3,1.0609369E-2,6.4006085E-3,6.303705E-3,4.130107E-3,1.2374903E-3,3.8338583E-3,4.130107E-3,1.2374903E-3,-1.4563465E-3,1.2374903E-3,-2.6566514E-3,-4.8789945E-3,1.2374903E-3,-1.7225298E-3],"categories":[],"categories_nodes":[],"categories_segments":[],"categories_sizes":[],"default_left":[0,0,0,0,0,0,0,0,0,0,0,0,0,0,0,0,0,0,0,0,0,0,0,0,0,0,0,0,0],"id":15,"left_children":[1,3,5,7,9,11,13,15,17,19,21,23,25,27,-1,-1,-1,-1,-1,-1,-1,-1,-1,-1,-1,-1,-1,-1,-1],"loss_changes":[5.052436E2,5.560269E1,1.14938934E2,1.8326263E1,1.5070482E1,3.7786102E1,1.5984372E1,1.3354187E1,9.851379E0,4.1437306E0,8.157761E0,7.2995305E0,1.8909943E1,2.6483618E1,0E0,0E0,0E0,0E0,0E0,0E0,0E0,0E0,0E0,0E0,0E0,0E0,0E0,0E0,0E0],"parents":[2147483647,0,0,1,1,2,2,3,3,4,4,5,5,6,6,7,7,8,8,9,9,10,10,11,11,12,12,13,13],"right_children":[2,4,6,8,10,12,14,16,18,20,22,24,26,28,-1,-1,-1,-1,-1,-1,-1,-1,-1,-1,-1,-1,-1,-1,-1],"split_conditions":[2.2901785E-1,2.1449387E-1,7.5204086E-1,1.8997887E-1,7.5E-1,1.10113434E-1,8.472505E-1,7.9285717E-1,2.72E-1,6.24E-1,6.4E-1,6.377551E-1,2.5118178E-1,2.6140153E-1,1.2374903E-3,1.0609369E-2,6.4006085E-3,6.303705E-3,4.130107E-3,1.2374903E-3,3.8338583E-3,4.130107E-3,1.2374903E-3,-1.4563465E-3,1.2374903E-3,-2.6566514E-3,-4.8789945E-3,1.2374903E-3,-1.7225298E-3],"split_indices":[0,0,1,0,1,2,3,1,4,4,4,1,0,0,0,0,0,0,0,0,0,0,0,0,0,0,0,0,0],"split_type":[0,0,0,0,0,0,0,0,0,0,0,0,0,0,0,0,0,0,0,0,0,0,0,0,0,0,0,0,0],"sum_hessian":[4.6371562E3,1.4941289E3,3.1430273E3,9.708893E2,5.232396E2,1.857417E3,1.2856105E3,4.255039E2,5.453854E2,2.4764162E2,2.7559802E2,5.8608982E1,1.798808E3,1.1908271E3,9.478333E1,1.22850235E2,3.0265366E2,1.5486478E2,3.905206E2,1.9773944E2,4.9902176E1,2.2406229E2,5.1535744E1,2.1712416E1,3.689657E1,6.020307E2,1.1967772E3,4.9502774E2,6.9579944E2],"tree_param":{"num_deleted":"0","num_feature":"15","num_nodes":"29","size_leaf_vector":"1"}},{"base_weights":[2.8533253E-3,4.7273564E-1,-2.2245243E-1,7.838154E-1,3.4324464E-1,-3.8319683E-1,9.943628E-3,8.261571E-1,5.6353E-3,1.251416E-1,4.3446994E-1,1.251416E-1,-4.08883E-1,-3.9764687E-2,1.251416E-1,8.739596E-3,5.6353E-3,1.251416E-3,4.27406E-3,5.6353E-3,3.0892906E-3,-1.4187071E-3,1.251416E-3,-1.8610021E-3,-4.5077954E-3,3.0466457E-4,-2.6680233E-3,1.251416E-3,-4.7609708E-4],"categories":[],"categories_nodes":[],"categories_segments":[],"categories_sizes":[],"default_left":[0,0,0,0,0,0,0,0,0,0,0,0,0,0,0,0,0,0,0,0,0,0,0,0,0,0,0,0,0],"id":16,"left_children":[1,3,5,7,9,11,13,15,-1,17,19,21,23,25,27,-1,-1,-1,-1,-1,-1,-1,-1,-1,-1,-1,-1,-1,-1],"loss_changes":[4.924168E2,5.9415222E1,1.17733444E2,6.407898E0,2.3396614E1,3.8952057E1,1.5755273E1,5.127228E0,0E0,7.6622076E0,1.1821869E1,4.699733E0,1.6356293E1,1.9729982E1,8.0655766E-1,0E0,0E0,0E0,0E0,0E0,0E0,0E0,0E0,0E0,0E0,0E0,0E0,0E0,0E0],"parents":[2147483647,0,0,1,1,2,2,3,3,4,4,5,5,6,6,7,7,9,9,10,10,11,11,12,12,13,13,14,14],"right_children":[2,4,6,8,10,12,14,16,-1,18,20,22,24,26,28,-1,-1,-1,-1,-1,-1,-1,-1,-1,-1,-1,-1,-1,-1],"split_conditions":[2.2901785E-1,1.8997887E-1,7.5204086E-1,8.285715E-1,7.5E-1,1.00264296E-1,8.472505E-1,5.7637477E-1,5.6353E-3,6E-1,7.72449E-1,6.377551E-1,2.4044554E-1,7.3625255E-1,9.2755103E-1,8.739596E-3,5.6353E-3,1.251416E-3,4.27406E-3,5.6353E-3,3.0892906E-3,-1.4187071E-3,1.251416E-3,-1.8610021E-3,-4.5077954E-3,3.0466457E-4,-2.6680233E-3,1.251416E-3,-4.7609708E-4],"split_indices":[0,0,1,1,1,2,3,3,0,4,1,1,0,3,1,0,0,0,0,0,0,0,0,0,0,0,0,0,0],"split_type":[0,0,0,0,0,0,0,0,0,0,0,0,0,0,0,0,0,0,0,0,0,0,0,0,0,0,0,0,0],"sum_hessian":[4.625859E3,1.4988685E3,3.1269902E3,4.308464E2,1.0680221E3,1.8490751E3,1.2779153E3,4.1633643E2,1.4510003E1,2.9614246E2,7.7187964E2,3.7388885E1,1.8116862E3,1.1826991E3,9.521622E1,3.6525586E2,5.1080544E1,2.2303732E2,7.310512E1,3.6650943E2,4.0537024E2,1.5214292E1,2.2174595E1,2.948601E2,1.516826E3,9.032232E2,2.7947586E2,8.2143105E1,1.3073109E1],"tree_param":{"num_deleted":"0","num_feature":"15","num_nodes":"29","size_leaf_vector":"1"}},{"base_weights":[4.812078E-3,4.7971264E-1,-2.1161841E-1,7.3147833E-1,3.459445E-1,-3.7722245E-1,2.7561735E-2,7.7564454E-1,5.3871144E-3,1.3404712E-3,3.8961425E-1,1.3404712E-1,-4.0323055E-1,-2.2408985E-2,1.3404712E-1,9.338893E-3,6.7270496E-3,3.077068E-3,4.928609E-3,-1.3459171E-3,1.3404712E-3,-6.0683624E-3,-3.5158421E-3,1.3404712E-3,-1.4913802E-3,1.3404712E-3,-0E0],"categories":[],"categories_nodes":[],"categories_segments":[],"categories_sizes":[],"default_left":[0,0,0,0,0,0,0,0,0,0,0,0,0,0,0,0,0,0,0,0,0,0,0,0,0,0,0],"id":17,"left_children":[1,3,5,7,9,11,13,15,-1,-1,17,19,21,23,25,-1,-1,-1,-1,-1,-1,-1,-1,-1,-1,-1,-1],"loss_changes":[4.7742917E2,4.7707E1,1.2668576E2,5.4993896E0,1.4361176E1,4.0246887E1,1.5219643E1,4.2561035E0,0E0,0E0,6.7002106E0,5.0963163E0,1.8463104E1,2.794677E1,3.828621E-1,0E0,0E0,0E0,0E0,0E0,0E0,0E0,0E0,0E0,0E0,0E0,0E0],"parents":[2147483647,0,0,1,1,2,2,3,3,4,4,5,5,6,6,7,7,10,10,11,11,12,12,13,13,14,14],"right_children":[2,4,6,8,10,12,14,16,-1,-1,18,20,22,24,26,-1,-1,-1,-1,-1,-1,-1,-1,-1,-1,-1,-1],"split_conditions":[2.2771937E-1,1.937755E-1,7.5204086E-1,8.214286E-1,7.3673475E-1,1.00264296E-1,8.472505E-1,2.5641006E-1,5.3871144E-3,1.3404712E-3,4.72E-1,6.377551E-1,6.959184E-1,2.5967723E-1,9.2755103E-1,9.338893E-3,6.7270496E-3,3.077068E-3,4.928609E-3,-1.3459171E-3,1.3404712E-3,-6.0683624E-3,-3.5158421E-3,1.3404712E-3,-1.4913802E-3,1.3404712E-3,-0E0],"split_indices":[0,0,1,1,1,2,3,2,0,0,4,1,1,0,1,0,0,0,0,0,0,0,0,0,0,0,0],"split_type":[0,0,0,0,0,0,0,0,0,0,0,0,0,0,0,0,0,0,0,0,0,0,0,0,0,0,0],"sum_hessian":[4.619117E3,1.4456191E3,3.173498E3,4.9123895E2,9.543801E2,1.8759318E3,1.2975663E3,4.4571408E2,4.5524853E1,7.993891E1,8.744412E2,3.813946E1,1.8377922E3,1.2023274E3,9.5238884E1,1.559315E2,2.897826E2,5.041091E2,3.7033212E2,1.5726939E1,2.2412523E1,3.5705603E2,1.4807362E3,4.923505E2,7.099769E2,8.243918E1,1.2799703E1],"tree_param":{"num_deleted":"0","num_feature":"15","num_nodes":"27","size_leaf_vector":"1"}},{"base_weights":[-0E0,4.9670106E-1,-2.0365487E-1,7.3980576E-1,3.4821516E-1,-3.693696E-1,3.1535186E-2,7.9083437E-1,5.4401043E-3,4.554225E-1,1.9631557E-1,1.4652309E-1,-3.9716056E-1,1.4652309E-1,-5.658998E-2,8.230879E-3,5.4401043E-3,5.4401043E-3,3.2586902E-3,1.4652308E-3,3.2586902E-3,-1.2531873E-3,1.4652308E-3,-2.5306782E-3,-4.7900407E-3,4.4966556E-4,1.4652308E-3,4.4966556E-4,-2.5104317E-3],"categories":[],"categories_nodes":[],"categories_segments":[],"categories_sizes":[],"default_left":[0,0,0,0,0,0,0,0,0,0,0,0,0,0,0,0,0,0,0,0,0,0,0,0,0,0,0,0,0],"id":18,"left_children":[1,3,5,7,9,11,13,15,-1,17,19,21,23,25,27,-1,-1,-1,-1,-1,-1,-1,-1,-1,-1,-1,-1,-1,-1],"loss_changes":[4.706055E2,4.7482758E1,1.2908191E2,5.6280823E0,1.33363495E1,3.9817932E1,1.5451657E1,5.013916E0,0E0,1.1795578E1,8.321913E0,7.172874E0,2.1457397E1,2.4430723E0,3.0611036E1,0E0,0E0,0E0,0E0,0E0,0E0,0E0,0E0,0E0,0E0,0E0,0E0,0E0,0E0],"parents":[2147483647,0,0,1,1,2,2,3,3,4,4,5,5,6,6,7,7,9,9,10,10,11,11,12,12,13,13,14,14],"right_children":[2,4,6,8,10,12,14,16,-1,18,20,22,24,26,28,-1,-1,-1,-1,-1,-1,-1,-1,-1,-1,-1,-1,-1,-1],"split_conditions":[2.248098E-1,1.937755E-1,7.5204086E-1,5.7637477E-1,2.1449387E-1,1.10113434E-1,2.609756E-1,8.285715E-1,5.4401043E-3,7.72449E-1,4.56E-1,6.377551E-1,2.5118178E-1,7.6428574E-1,1.00264296E-1,8.230879E-3,5.4401043E-3,5.4401043E-3,3.2586902E-3,1.4652308E-3,3.2586902E-3,-1.2531873E-3,1.4652308E-3,-2.5306782E-3,-4.7900407E-3,4.4966556E-4,1.4652308E-3,4.4966556E-4,-2.5104317E-3],"split_indices":[0,0,1,3,0,2,0,1,0,1,4,1,0,1,2,0,0,0,0,0,0,0,0,0,0,0,0,0,0],"split_type":[0,0,0,0,0,0,0,0,0,0,0,0,0,0,0,0,0,0,0,0,0,0,0,0,0,0,0,0,0],"sum_hessian":[4.630139E3,1.343461E3,3.286678E3,4.993185E2,8.441425E2,1.9289446E3,1.3577335E3,4.2734238E2,7.1976135E1,4.8515604E2,3.5898645E2,5.7777367E1,1.8711672E3,5.642551E2,7.934784E2,4.157304E2,1.1611964E1,2.7064627E2,2.1450977E2,1.9851186E2,1.6047461E2,2.090127E1,3.6876095E1,6.8965216E2,1.181515E3,1.4524988E2,4.1900522E2,3.594604E2,4.3401797E2],"tree_param":{"num_deleted":"0","num_feature":"15","num_nodes":"29","size_leaf_vector":"1"}},{"base_weights":[-0E0,4.6729308E-1,-2.1740784E-1,7.09436E-1,3.379845E-1,-3.7437564E-1,5.260615E-3,7.454553E-1,5.2371025E-3,1.3917354E-1,4.109453E-1,1.2494262E-1,-4.019864E-1,1.2494262E-1,-7.588922E-2,8.719637E-3,6.620599E-3,5.1885443E-3,1.2494262E-3,5.1591797E-3,3.0191801E-3,-1.3852188E-3,1.2494262E-3,-2.6038394E-3,-4.7414172E-3,1.2494262E-3,2.45267E-4,2.45267E-4,-2.3202656E-3],"categories":[],"categories_nodes":[],"categories_segments":[],"categories_sizes":[],"default_left":[0,0,0,0,0,0,0,0,0,0,0,0,0,0,0,0,0,0,0,0,0,0,0,0,0,0,0,0,0],"id":19,"left_children":[1,3,5,7,9,11,13,15,-1,17,19,21,23,25,27,-1,-1,-1,-1,-1,-1,-1,-1,-1,-1,-1,-1,-1,-1],"loss_changes":[4.7167188E2,4.4928192E1,1.11180405E2,4.959427E0,1.366185E1,4.2162445E1,1.4608584E1,2.2322693E0,0E0,8.987806E0,7.268852E0,4.4728174E0,1.7899658E1,2.354292E0,2.1937502E1,0E0,0E0,0E0,0E0,0E0,0E0,0E0,0E0,0E0,0E0,0E0,0E0,0E0,0E0],"parents":[2147483647,0,0,1,1,2,2,3,3,4,4,5,5,6,6,7,7,9,9,10,10,11,11,12,12,13,13,14,14],"right_children":[2,4,6,8,10,12,14,16,-1,18,20,22,24,26,28,-1,-1,-1,-1,-1,-1,-1,-1,-1,-1,-1,-1,-1,-1],"split_conditions":[2.2771937E-1,1.937755E-1,7.5204086E-1,8.2448983E-1,7.5E-1,1.00264296E-1,2.5967723E-1,2.5641006E-1,5.2371025E-3,2.1449387E-1,7.72449E-1,5.908163E-1,2.5118178E-1,7.12E-1,1.00264296E-1,8.719637E-3,6.620599E-3,5.1885443E-3,1.2494262E-3,5.1591797E-3,3.0191801E-3,-1.3852188E-3,1.2494262E-3,-2.6038394E-3,-4.7414172E-3,1.2494262E-3,2.45267E-4,2.45267E-4,-2.3202656E-3],"split_indices":[0,0,1,1,1,2,0,2,0,0,1,1,0,4,2,0,0,0,0,0,0,0,0,0,0,0,0,0,0],"split_type":[0,0,0,0,0,0,0,0,0,0,0,0,0,0,0,0,0,0,0,0,0,0,0,0,0,0,0,0,0],"sum_hessian":[4.6204204E3,1.4645801E3,3.15584E3,4.993442E2,9.652359E2,1.8516342E3,1.3042059E3,4.7609024E2,2.3253977E1,2.667129E2,6.98523E2,3.75404E1,1.8140938E3,4.960246E2,8.0818134E2,1.6560402E2,3.104862E2,4.888744E1,2.1782547E2,3.4169916E2,3.5682382E2,1.2042048E1,2.5498352E1,6.24816E2,1.1892778E3,4.5839304E2,3.7631546E1,3.600056E2,4.4817572E2],"tree_param":{"num_deleted":"0","num_feature":"15","num_nodes":"29","size_leaf_vector":"1"}},{"base_weights":[-1.102536E-3,-3.3582965E-1,2.307819E-1,1.1880574E-2,-3.4959957E-1,3.2422265E-1,-2.2641577E-2,-4.5611542E-1,-1.5948363E-1,1.594711E-2,4.78754E-1,-9.2914365E-2,1.4157012E0,-4.7518546E-3,4.192289E-3,-9.322807E-4,-3.2961788E-3,2.0431284E-2,-3.9207155E-4,2.6439547E-3,5.6956667E-3,-3.733427E-3,-2.6187161E-5,1.9054228E-2,5.024831E-3],"categories":[],"categories_nodes":[],"categories_segments":[],"categories_sizes":[],"default_left":[0,0,0,0,0,0,0,0,0,0,0,0,0,0,0,0,0,0,0,0,0,0,0,0,0],"id":20,"left_children":[1,3,5,-1,7,9,11,13,15,17,19,21,23,-1,-1,-1,-1,-1,-1,-1,-1,-1,-1,-1,-1],"loss_changes":[3.606109E2,4.3439636E1,6.529901E1,0E0,3.7706833E1,9.509924E1,7.6916306E1,2.725029E1,7.7012978E0,8.2033905E1,2.501535E1,1.814121E1,1.0007744E1,0E0,0E0,0E0,0E0,0E0,0E0,0E0,0E0,0E0,0E0,0E0,0E0],"parents":[2147483647,0,0,1,1,2,2,4,4,5,5,6,6,7,7,8,8,9,9,10,10,11,11,12,12],"right_children":[2,4,6,-1,8,10,12,14,16,18,20,22,24,-1,-1,-1,-1,-1,-1,-1,-1,-1,-1,-1,-1],"split_conditions":[7.4489796E-1,8.2203366E-2,6.6700613E-1,1.1880574E-2,7.265307E-1,3.431772E-1,8.9714867E-1,8.0957234E-1,6.059063E-1,8.452139E-2,7.6224494E-1,7.67347E-1,8.663266E-1,-4.7518546E-3,4.192289E-3,-9.322807E-4,-3.2961788E-3,2.0431284E-2,-3.9207155E-4,2.6439547E-3,5.6956667E-3,-3.733427E-3,-2.6187161E-5,1.9054228E-2,5.024831E-3],"split_indices":[1,2,3,0,1,3,3,3,3,3,1,1,1,0,0,0,0,0,0,0,0,0,0,0,0],"split_type":[0,0,0,0,0,0,0,0,0,0,0,0,0,0,0,0,0,0,0,0,0,0,0,0,0],"sum_hessian":[4.6200513E3,1.8915927E3,2.7284587E3,1.2470703E1,1.879122E3,1.9953093E3,7.3314935E2,1.1965038E3,6.826182E2,6.702369E2,1.3250725E3,7.0412054E2,2.9028803E1,1.1809294E3,1.5574264E1,5.010942E2,1.8152405E2,1.345919E1,6.5677765E2,4.034108E2,9.216617E2,1.649847E2,5.3913586E2,1.4646818E1,1.4381986E1],"tree_param":{"num_deleted":"0","num_feature":"15","num_nodes":"25","size_leaf_vector":"1"}},{"base_weights":[1.0312494E-2,4.696362E-1,-2.1216637E-1,7.5688887E-1,3.4616387E-1,1.2873492E-1,-2.7627653E-1,5.5152634E-3,7.932636E-1,4.602831E-1,2.1659824E-1,1.9367263E-2,1.2873492E-3,-1.0844223E-1,-3.8206092E-1,8.2813E-3,5.5152634E-3,5.5152634E-3,3.5605622E-3,1.2873492E-3,3.3844064E-3,1.2873492E-3,-7.3770806E-4,-1.7914402E-3,-7.3770806E-4,-2.4525155E-3,-4.5132134E-3],"categories":[],"categories_nodes":[],"categories_segments":[],"categories_sizes":[],"default_left":[0,0,0,0,0,0,0,0,0,0,0,0,0,0,0,0,0,0,0,0,0,0,0,0,0,0,0],"id":21,"left_children":[1,3,5,7,9,11,13,-1,15,17,19,21,-1,23,25,-1,-1,-1,-1,-1,-1,-1,-1,-1,-1,-1,-1],"loss_changes":[4.7501712E2,5.252118E1,8.310249E1,5.0469055E0,1.5305603E1,3.2269993E0,4.7961365E1,0E0,2.4049683E0,7.18293E0,1.164797E1,2.3364082E1,0E0,8.302094E0,2.004985E1,0E0,0E0,0E0,0E0,0E0,0E0,0E0,0E0,0E0,0E0,0E0,0E0],"parents":[2147483647,0,0,1,1,2,2,3,3,4,4,5,5,6,6,8,8,9,9,10,10,11,11,13,13,14,14],"right_children":[2,4,6,8,10,12,14,-1,16,18,20,22,-1,24,26,-1,-1,-1,-1,-1,-1,-1,-1,-1,-1,-1,-1],"split_conditions":[2.286012E-1,1.8997887E-1,1.00264296E-1,1E0,2.1449387E-1,8.472505E-1,2.5320277E-1,5.5152634E-3,5.7637477E-1,3.36E-1,4.56E-1,1.1405295E-1,1.2873492E-3,6.405295E-1,3.1873727E-1,8.2813E-3,5.5152634E-3,5.5152634E-3,3.5605622E-3,1.2873492E-3,3.3844064E-3,1.2873492E-3,-7.3770806E-4,-1.7914402E-3,-7.3770806E-4,-2.4525155E-3,-4.5132134E-3],"split_indices":[0,0,2,10,0,3,0,0,3,4,4,3,0,3,3,0,0,0,0,0,0,0,0,0,0,0,0],"split_type":[0,0,0,0,0,0,0,0,0,0,0,0,0,0,0,0,0,0,0,0,0,0,0,0,0,0,0],"sum_hessian":[4.6228433E3,1.5081333E3,3.11471E3,4.4323007E2,1.0649032E3,4.0314282E2,2.7115671E3,1.35974655E1,4.296326E2,5.5531256E2,5.0959067E2,2.9000146E2,1.1314136E2,1.0558949E3,1.6556722E3,3.773665E2,5.2266098E1,2.0497137E2,3.5034116E2,2.8210675E2,2.2748392E2,3.7040733E1,2.5296072E2,8.472719E2,2.0862302E2,4.5273917E2,1.2029331E3],"tree_param":{"num_deleted":"0","num_feature":"15","num_nodes":"27","size_leaf_vector":"1"}},{"base_weights":[5.1034763E-3,5.0517666E-1,-1.963476E-1,7.2743094E-1,3.8003623E-1,-3.558756E-1,2.7158022E-2,8.886414E-3,6.327384E-1,1.5441453E-1,4.4714078E-1,1.5441453E-1,-3.77997E-1,1.5441453E-1,-5.31857E-2,5.5373358E-3,7.270048E-3,1.5441453E-3,5.037981E-3,4.919975E-3,2.1589135E-3,-1.1179124E-3,1.5441453E-3,-1.5622933E-3,-4.4333665E-3,1.5441453E-3,5.0614413E-4,5.0614413E-4,-1.9804013E-3],"categories":[],"categories_nodes":[],"categories_segments":[],"categories_sizes":[],"default_left":[0,0,0,0,0,0,0,0,0,0,0,0,0,0,0,0,0,0,0,0,0,0,0,0,0,0,0,0,0],"id":22,"left_children":[1,3,5,7,9,11,13,-1,15,17,19,21,23,25,27,-1,-1,-1,-1,-1,-1,-1,-1,-1,-1,-1,-1,-1,-1],"loss_changes":[4.6860114E2,3.577057E1,1.18500465E2,4.454117E0,1.3665993E1,3.3943222E1,1.6528912E1,0E0,3.0032501E0,6.6777067E0,6.2699738E0,5.3956046E0,2.6926544E1,2.07061E0,2.3155254E1,0E0,0E0,0E0,0E0,0E0,0E0,0E0,0E0,0E0,0E0,0E0,0E0,0E0,0E0],"parents":[2147483647,0,0,1,1,2,2,3,3,4,4,5,5,6,6,8,8,9,9,10,10,11,11,12,12,13,13,14,14],"right_children":[2,4,6,8,10,12,14,-1,16,18,20,22,24,26,28,-1,-1,-1,-1,-1,-1,-1,-1,-1,-1,-1,-1,-1,-1],"split_conditions":[2.2383757E-1,1.9132619E-1,7.5204086E-1,7.938776E-1,7.5E-1,1.00264296E-1,2.5392163E-1,8.886414E-3,8.081633E-1,6.08E-1,6.48E-1,6.377551E-1,2.4154346E-1,7.12E-1,1.00264296E-1,5.5373358E-3,7.270048E-3,1.5441453E-3,5.037981E-3,4.919975E-3,2.1589135E-3,-1.1179124E-3,1.5441453E-3,-1.5622933E-3,-4.4333665E-3,1.5441453E-3,5.0614413E-4,5.0614413E-4,-1.9804013E-3],"split_indices":[0,0,1,1,1,2,0,0,1,4,4,1,0,4,2,0,0,0,0,0,0,0,0,0,0,0,0,0,0],"split_type":[0,0,0,0,0,0,0,0,0,0,0,0,0,0,0,0,0,0,0,0,0,0,0,0,0,0,0,0,0],"sum_hessian":[4.6247627E3,1.3273165E3,3.297446E3,4.6658594E2,8.607305E2,1.9249897E3,1.3724563E3,1.5323169E2,3.1335425E2,1.9211583E2,6.686147E2,3.70386E1,1.8879512E3,4.891233E2,8.8333295E2,1.0735052E2,2.0600374E2,1.4715913E2,4.4956688E1,5.516466E2,1.1696812E2,1.5040221E1,2.199838E1,4.3699994E2,1.4509512E3,4.5129016E2,3.783312E1,3.6350436E2,5.198286E2],"tree_param":{"num_deleted":"0","num_feature":"15","num_nodes":"29","size_leaf_vector":"1"}},{"base_weights":[6.239353E-3,4.4331577E-1,-2.0823576E-1,7.347386E-1,3.1766638E-1,-3.5807016E-1,2.8998388E-3,9.365384E-1,6.344008E-1,4.349925E-1,1.8491341E-1,1.1754001E-1,-3.8584378E-1,-4.221066E-2,1.1754001E-1,1.1249062E-2,6.6133738E-3,5.2620247E-3,6.8575144E-3,5.2620247E-3,3.0995293E-3,1.1754001E-3,3.0995293E-3,-1.3415188E-3,1.1754001E-3,-5.7770438E-3,-3.3505084E-3,3.0418715E-4,-2.7964707E-3,1.1754001E-3,-0E0],"categories":[],"categories_nodes":[],"categories_segments":[],"categories_sizes":[],"default_left":[0,0,0,0,0,0,0,0,0,0,0,0,0,0,0,0,0,0,0,0,0,0,0,0,0,0,0,0,0,0,0],"id":23,"left_children":[1,3,5,7,9,11,13,15,17,19,21,23,25,27,29,-1,-1,-1,-1,-1,-1,-1,-1,-1,-1,-1,-1,-1,-1,-1,-1],"loss_changes":[4.361259E2,5.493564E1,9.900729E1,6.323654E0,1.6382057E1,3.4668106E1,1.4057358E1,3.2936172E0,2.7900085E0,1.0965576E1,1.0829081E1,7.073853E0,1.6349365E1,2.1480907E1,2.95084E-1,0E0,0E0,0E0,0E0,0E0,0E0,0E0,0E0,0E0,0E0,0E0,0E0,0E0,0E0,0E0,0E0],"parents":[2147483647,0,0,1,1,2,2,3,3,4,4,5,5,6,6,7,7,8,8,9,9,10,10,11,11,12,12,13,13,14,14],"right_children":[2,4,6,8,10,12,14,16,18,20,22,24,26,28,30,-1,-1,-1,-1,-1,-1,-1,-1,-1,-1,-1,-1,-1,-1,-1,-1],"split_conditions":[2.286012E-1,1.8997887E-1,7.5204086E-1,7.9285717E-1,2.1449387E-1,1.10113434E-1,8.472505E-1,4.9898165E-1,1E0,7.72449E-1,4.72E-1,6.377551E-1,6.969388E-1,7.3625255E-1,9.2755103E-1,1.1249062E-2,6.6133738E-3,5.2620247E-3,6.8575144E-3,5.2620247E-3,3.0995293E-3,1.1754001E-3,3.0995293E-3,-1.3415188E-3,1.1754001E-3,-5.7770438E-3,-3.3505084E-3,3.0418715E-4,-2.7964707E-3,1.1754001E-3,-0E0],"split_indices":[0,0,1,1,0,2,3,3,10,1,4,1,1,3,1,0,0,0,0,0,0,0,0,0,0,0,0,0,0,0,0],"split_type":[0,0,0,0,0,0,0,0,0,0,0,0,0,0,0,0,0,0,0,0,0,0,0,0,0,0,0,0,0,0,0],"sum_hessian":[4.6262065E3,1.5226147E3,3.1035918E3,4.490114E2,1.0736034E3,1.8160624E3,1.2875295E3,1.3196573E2,3.170457E2,5.5987427E2,5.137291E2,5.8538616E1,1.7575238E3,1.1926577E3,9.4871864E1,6.702042E1,6.494531E1,1.3986971E1,3.0305872E2,2.9854004E2,2.613342E2,2.9751718E2,2.1621191E2,2.1180931E1,3.7357685E1,3.5291153E2,1.4046122E3,9.1340436E2,2.7925327E2,8.2134926E1,1.2736937E1],"tree_param":{"num_deleted":"0","num_feature":"15","num_nodes":"31","size_leaf_vector":"1"}},{"base_weights":[1.3934633E-3,4.298708E-1,-1.9894111E-1,6.452649E-1,3.1000093E-1,-3.6669475E-1,3.6358207E-2,6.9477916E-1,4.7763293E-3,1.1546485E-3,3.4021252E-1,1.1546485E-1,-3.9503974E-1,1.1546485E-1,-3.191732E-2,7.22855E-3,4.7763293E-3,1.1546485E-3,3.5915296E-3,-1.3978743E-3,1.1546485E-3,-2.4745571E-3,-4.7335313E-3,1.1546485E-3,4.1773764E-4,4.1773764E-4,-1.4469648E-3],"categories":[],"categories_nodes":[],"categories_segments":[],"categories_sizes":[],"default_left":[0,0,0,0,0,0,0,0,0,0,0,0,0,0,0,0,0,0,0,0,0,0,0,0,0,0,0],"id":24,"left_children":[1,3,5,7,9,11,13,15,-1,-1,17,19,21,23,25,-1,-1,-1,-1,-1,-1,-1,-1,-1,-1,-1,-1],"loss_changes":[3.9963196E2,3.729007E1,1.25498474E2,5.4211426E0,8.511055E0,3.6800583E1,1.3197854E1,4.037369E0,0E0,0E0,5.0785904E0,7.259375E0,2.0021423E1,1.0044346E0,1.5976925E1,0E0,0E0,0E0,0E0,0E0,0E0,0E0,0E0,0E0,0E0,0E0,0E0],"parents":[2147483647,0,0,1,1,2,2,3,3,4,4,5,5,6,6,7,7,10,10,11,11,12,12,13,13,14,14],"right_children":[2,4,6,8,10,12,14,16,-1,-1,18,20,22,24,26,-1,-1,-1,-1,-1,-1,-1,-1,-1,-1,-1,-1],"split_conditions":[2.2723849E-1,1.937755E-1,7.5204086E-1,5.7637477E-1,7.3673475E-1,1.10113434E-1,2.4838276E-1,8.285715E-1,4.7763293E-3,1.1546485E-3,3.3503056E-1,6.377551E-1,2.5118178E-1,8.153061E-1,1.00264296E-1,7.22855E-3,4.7763293E-3,1.1546485E-3,3.5915296E-3,-1.3978743E-3,1.1546485E-3,-2.4745571E-3,-4.7335313E-3,1.1546485E-3,4.1773764E-4,4.1773764E-4,-1.4469648E-3],"split_indices":[0,0,1,3,1,2,0,1,0,0,3,1,0,1,2,0,0,0,0,0,0,0,0,0,0,0,0],"split_type":[0,0,0,0,0,0,0,0,0,0,0,0,0,0,0,0,0,0,0,0,0,0,0,0,0,0,0],"sum_hessian":[4.6283174E3,1.474311E3,3.1540063E3,5.163051E2,9.580059E2,1.8421367E3,1.3118698E3,4.4273322E2,7.357189E1,7.288132E1,8.851246E2,5.817968E1,1.783957E3,3.47677E2,9.641928E2,4.3125357E2,1.147965E1,4.6984844E1,8.381397E2,2.1431658E1,3.6748024E1,6.3009393E2,1.153863E3,3.3200015E2,1.5676845E1,3.645775E2,5.9961523E2],"tree_param":{"num_deleted":"0","num_feature":"15","num_nodes":"27","size_leaf_vector":"1"}},{"base_weights":[-1.6115953E-3,4.8648173E-1,-1.8768303E-1,6.908163E-1,3.6821455E-1,-3.5789883E-1,3.2858133E-2,7.258614E-1,5.2951537E-3,4.3324748E-1,2.139251E-1,1.4939934E-1,-3.8076833E-1,1.4939934E-1,-7.356958E-2,7.639418E-3,5.2951537E-3,5.2951537E-3,3.2358628E-3,1.4939933E-3,3.2358628E-3,-1.1568449E-3,1.4939933E-3,-2.204567E-3,-4.7913785E-3,1.4939933E-3,3.7914878E-4,3.7914878E-4,-2.466422E-3],"categories":[],"categories_nodes":[],"categories_segments":[],"categories_sizes":[],"default_left":[0,0,0,0,0,0,0,0,0,0,0,0,0,0,0,0,0,0,0,0,0,0,0,0,0,0,0,0,0],"id":25,"left_children":[1,3,5,7,9,11,13,15,-1,17,19,21,23,25,27,-1,-1,-1,-1,-1,-1,-1,-1,-1,-1,-1,-1,-1,-1],"loss_changes":[4.217683E2,2.9676544E1,1.2674831E2,3.8440247E0,7.7023697E0,3.4765945E1,2.2097342E1,3.0290985E0,0E0,1.0294052E1,6.1875496E0,5.2680144E0,2.8750153E1,3.358101E0,2.8277466E1,0E0,0E0,0E0,0E0,0E0,0E0,0E0,0E0,0E0,0E0,0E0,0E0,0E0,0E0],"parents":[2147483647,0,0,1,1,2,2,3,3,4,4,5,5,6,6,7,7,9,9,10,10,11,11,12,12,13,13,14,14],"right_children":[2,4,6,8,10,12,14,16,-1,18,20,22,24,26,28,-1,-1,-1,-1,-1,-1,-1,-1,-1,-1,-1,-1,-1,-1],"split_conditions":[2.2194877E-1,1.8997887E-1,7.5E-1,8.285715E-1,2.1449387E-1,1.00264296E-1,2.5967723E-1,5.7637477E-1,5.2951537E-3,7.72449E-1,5.641548E-1,6.377551E-1,2.5118178E-1,7.12E-1,1.00264296E-1,7.639418E-3,5.2951537E-3,5.2951537E-3,3.2358628E-3,1.4939933E-3,3.2358628E-3,-1.1568449E-3,1.4939933E-3,-2.204567E-3,-4.7913785E-3,1.4939933E-3,3.7914878E-4,3.7914878E-4,-2.466422E-3],"split_indices":[0,0,1,1,0,2,0,3,0,1,3,1,0,4,2,0,0,0,0,0,0,0,0,0,0,0,0,0,0],"split_type":[0,0,0,0,0,0,0,0,0,0,0,0,0,0,0,0,0,0,0,0,0,0,0,0,0,0,0,0,0],"sum_hessian":[4.622443E3,1.2720963E3,3.3503464E3,4.5438226E2,8.177141E2,1.8917195E3,1.4586271E3,4.3928683E2,1.50954275E1,5.643285E2,2.5338562E2,3.618357E1,1.8555359E3,6.3070795E2,8.279191E2,3.8591345E2,5.3373386E1,3.0141025E2,2.6291824E2,1.6946413E2,8.3921486E1,1.4930437E1,2.1253134E1,7.15639E2,1.1398969E3,5.830098E2,4.76981E1,3.600355E2,4.6788364E2],"tree_param":{"num_deleted":"0","num_feature":"15","num_nodes":"29","size_leaf_vector":"1"}},{"base_weights":[6.0019353E-3,4.122788E-1,-2.0025443E-1,6.478089E-1,2.9093713E-1,-3.6528897E-1,3.0247677E-2,4.6937303E-3,6.8176067E-1,1.0601219E-1,3.725499E-1,1.0601219E-1,-3.9344355E-1,1.0601219E-1,-5.1707502E-2,7.1279434E-3,4.6937303E-3,1.0601218E-3,3.7558314E-3,4.647613E-3,2.7636846E-3,-1.4371568E-3,1.0601218E-3,-2.622236E-3,-4.7313385E-3,1.0601218E-3,2.7152343E-4,2.7152343E-4,-2.339134E-3],"categories":[],"categories_nodes":[],"categories_segments":[],"categories_sizes":[],"default_left":[0,0,0,0,0,0,0,0,0,0,0,0,0,0,0,0,0,0,0,0,0,0,0,0,0,0,0,0,0],"id":26,"left_children":[1,3,5,7,9,11,13,-1,15,17,19,21,23,25,27,-1,-1,-1,-1,-1,-1,-1,-1,-1,-1,-1,-1,-1,-1],"loss_changes":[3.8894382E2,4.372165E1,1.1740484E2,5.295868E0,1.7259079E1,3.4441986E1,1.3101938E1,0E0,1.987854E0,5.8526115E0,5.937912E0,6.9836574E0,1.743451E1,1.6546173E0,2.5755377E1,0E0,0E0,0E0,0E0,0E0,0E0,0E0,0E0,0E0,0E0,0E0,0E0,0E0,0E0],"parents":[2147483647,0,0,1,1,2,2,3,3,4,4,5,5,6,6,8,8,9,9,10,10,11,11,12,12,13,13,14,14],"right_children":[2,4,6,8,10,12,14,-1,16,18,20,22,24,26,28,-1,-1,-1,-1,-1,-1,-1,-1,-1,-1,-1,-1,-1,-1],"split_conditions":[2.2901785E-1,1.937755E-1,7.5204086E-1,1E0,7.5E-1,1.10113434E-1,2.5967723E-1,4.6937303E-3,5.7637477E-1,6.08E-1,7.72449E-1,6.377551E-1,2.5392163E-1,7.12E-1,1.00264296E-1,7.1279434E-3,4.6937303E-3,1.0601218E-3,3.7558314E-3,4.647613E-3,2.7636846E-3,-1.4371568E-3,1.0601218E-3,-2.622236E-3,-4.7313385E-3,1.0601218E-3,2.7152343E-4,2.7152343E-4,-2.339134E-3],"split_indices":[0,0,1,10,1,2,0,0,3,4,1,1,0,4,2,0,0,0,0,0,0,0,0,0,0,0,0,0,0],"split_type":[0,0,0,0,0,0,0,0,0,0,0,0,0,0,0,0,0,0,0,0,0,0,0,0,0,0,0,0,0],"sum_hessian":[4.614557E3,1.5537959E3,3.0607612E3,5.1813525E2,1.0356606E3,1.7845072E3,1.2762539E3,1.3567313E1,5.0456796E2,2.9828992E2,7.373707E2,5.799681E1,1.7265104E3,4.7540503E2,8.0084894E2,4.3401175E2,7.055622E1,2.2939734E2,6.889259E1,3.6136435E2,3.7600638E2,2.136018E1,3.663663E1,6.651915E2,1.0613188E3,4.394722E2,3.5932823E1,3.5971906E2,4.4112988E2],"tree_param":{"num_deleted":"0","num_feature":"15","num_nodes":"29","size_leaf_vector":"1"}},{"base_weights":[-0E0,4.098399E-1,-2.1048807E-1,5.261204E-1,1.822189E-1,-3.649967E-1,5.906127E-3,6.5064824E-1,4.1922003E-1,9.9675916E-2,3.4813192E-1,9.9675916E-2,-3.9361948E-1,9.9675916E-2,-6.0759895E-2,8.123981E-3,5.7007563E-3,5.3493413E-3,3.5416966E-3,9.967592E-4,2.051629E-3,3.5416966E-3,9.967592E-4,-1.4697177E-3,9.967592E-4,-2.524296E-3,-4.6256627E-3,9.967592E-4,1.945801E-4,1.945801E-4,-2.317351E-3],"categories":[],"categories_nodes":[],"categories_segments":[],"categories_sizes":[],"default_left":[0,0,0,0,0,0,0,0,0,0,0,0,0,0,0,0,0,0,0,0,0,0,0,0,0,0,0,0,0,0,0],"id":27,"left_children":[1,3,5,7,9,11,13,15,17,19,21,23,25,27,29,-1,-1,-1,-1,-1,-1,-1,-1,-1,-1,-1,-1,-1,-1,-1,-1],"loss_changes":[4.0048203E2,4.095999E1,1.02987045E2,1.2411743E1,1.0859154E1,3.96167E1,9.777323E0,3.8127747E0,8.448769E0,2.056436E0,1.1249958E1,4.7233953E0,1.6371002E1,1.6557188E0,2.2902456E1,0E0,0E0,0E0,0E0,0E0,0E0,0E0,0E0,0E0,0E0,0E0,0E0,0E0,0E0,0E0,0E0],"parents":[2147483647,0,0,1,1,2,2,3,3,4,4,5,5,6,6,7,7,8,8,9,9,10,10,11,11,12,12,13,13,14,14],"right_children":[2,4,6,8,10,12,14,16,18,20,22,24,26,28,30,-1,-1,-1,-1,-1,-1,-1,-1,-1,-1,-1,-1,-1,-1,-1,-1],"split_conditions":[2.2901785E-1,2.1449387E-1,7.5204086E-1,1.8997887E-1,4.72E-1,1.00264296E-1,2.6010358E-1,7.9285717E-1,2.72E-1,7.5E-1,6.88E-1,6.377551E-1,2.5118178E-1,8.163265E-1,1.00264296E-1,8.123981E-3,5.7007563E-3,5.3493413E-3,3.5416966E-3,9.967592E-4,2.051629E-3,3.5416966E-3,9.967592E-4,-1.4697177E-3,9.967592E-4,-2.524296E-3,-4.6256627E-3,9.967592E-4,1.945801E-4,1.945801E-4,-2.317351E-3],"split_indices":[0,0,1,0,4,2,0,1,4,1,4,1,0,1,2,0,0,0,0,0,0,0,0,0,0,0,0,0,0,0,0],"split_type":[0,0,0,0,0,0,0,0,0,0,0,0,0,0,0,0,0,0,0,0,0,0,0,0,0,0,0,0,0,0,0],"sum_hessian":[4.6194307E3,1.5648516E3,3.054579E3,1.0284939E3,5.3635767E2,1.7828124E3,1.2717667E3,4.5900912E2,5.6948474E2,3.1026468E2,2.26093E2,3.8678833E1,1.7441335E3,4.7858533E2,7.9318134E2,1.3339427E2,3.2561484E2,1.6165158E2,4.078332E2,1.4495343E2,1.6531125E2,1.6242131E2,6.367169E1,1.5257731E1,2.3421103E1,5.846638E2,1.1594697E3,4.5865878E2,1.9926542E1,3.5920334E2,4.3397803E2],"tree_param":{"num_deleted":"0","num_feature":"15","num_nodes":"31","size_leaf_vector":"1"}},{"base_weights":[-5.222359E-3,4.1165182E-1,-1.8726926E-1,5.925449E-1,2.8546605E-1,-3.4468707E-1,1.6275411E-2,6.328793E-1,4.390055E-3,1.9977494E-1,3.9522672E-1,1.1219128E-1,-3.7126505E-1,-2.8529216E-2,1.1219129E-3,7.6263016E-3,5.3446805E-3,1.1219129E-3,3.1818466E-3,4.390055E-3,2.3512954E-3,-1.2953688E-3,1.1219129E-3,-1.988811E-3,-4.496333E-3,1.1219129E-3,-1.5598355E-3],"categories":[],"categories_nodes":[],"categories_segments":[],"categories_sizes":[],"default_left":[0,0,0,0,0,0,0,0,0,0,0,0,0,0,0,0,0,0,0,0,0,0,0,0,0,0,0],"id":28,"left_children":[1,3,5,7,9,11,13,15,-1,17,19,21,23,25,-1,-1,-1,-1,-1,-1,-1,-1,-1,-1,-1,-1,-1],"loss_changes":[3.512469E2,3.119545E1,1.0369343E2,5.22583E0,7.514717E0,3.6642746E1,1.33937645E1,4.616867E0,0E0,9.074873E0,4.205551E0,4.6264043E0,2.348108E1,2.5278864E1,0E0,0E0,0E0,0E0,0E0,0E0,0E0,0E0,0E0,0E0,0E0,0E0,0E0],"parents":[2147483647,0,0,1,1,2,2,3,3,4,4,5,5,6,6,7,7,9,9,10,10,11,11,12,12,13,13],"right_children":[2,4,6,8,10,12,14,16,-1,18,20,22,24,26,-1,-1,-1,-1,-1,-1,-1,-1,-1,-1,-1,-1,-1],"split_conditions":[2.248098E-1,1.9617228E-1,7.5E-1,8.214286E-1,4.72E-1,1.00264296E-1,8.472505E-1,3.6E-1,4.390055E-3,7.571429E-1,6.48E-1,5.908163E-1,2.4802588E-1,2.6140153E-1,1.1219129E-3,7.6263016E-3,5.3446805E-3,1.1219129E-3,3.1818466E-3,4.390055E-3,2.3512954E-3,-1.2953688E-3,1.1219129E-3,-1.988811E-3,-4.496333E-3,1.1219129E-3,-1.5598355E-3],"split_indices":[0,0,1,1,4,2,3,4,0,1,4,1,0,0,0,0,0,0,0,0,0,0,0,0,0,0,0],"split_type":[0,0,0,0,0,0,0,0,0,0,0,0,0,0,0,0,0,0,0,0,0,0,0,0,0,0,0],"sum_hessian":[4.6055605E3,1.3963109E3,3.2092498E3,5.6292633E2,8.333846E2,1.8104928E3,1.3987571E3,5.137224E2,4.92039E1,4.810421E2,3.5234247E2,3.7310684E1,1.7731821E3,1.3028198E3,9.593719E1,2.0264082E2,3.1108157E2,1.8841335E2,2.9262878E2,2.0879956E2,1.4354292E2,1.2136417E1,2.5174267E1,5.6369385E2,1.2094883E3,5.988894E2,7.039304E2],"tree_param":{"num_deleted":"0","num_feature":"15","num_nodes":"27","size_leaf_vector":"1"}},{"base_weights":[-2.3759296E-3,3.9914215E-1,-1.9916394E-1,5.029089E-1,1.8363355E-1,-3.5773703E-1,2.0466577E-2,6.0298383E-1,4.0403023E-1,9.99891E-2,3.4327123E-1,9.99891E-2,-3.8536692E-1,9.99891E-2,-5.3834565E-2,7.763105E-3,5.2677887E-3,5.0350702E-3,3.4327123E-3,9.99891E-4,2.5663686E-3,3.4327123E-3,9.99891E-4,-1.426889E-3,9.99891E-4,-2.376204E-3,-4.598271E-3,9.99891E-4,2.3077268E-4,2.3077268E-4,-2.1210124E-3],"categories":[],"categories_nodes":[],"categories_segments":[],"categories_sizes":[],"default_left":[0,0,0,0,0,0,0,0,0,0,0,0,0,0,0,0,0,0,0,0,0,0,0,0,0,0,0,0,0,0,0],"id":29,"left_children":[1,3,5,7,9,11,13,15,17,19,21,23,25,27,29,-1,-1,-1,-1,-1,-1,-1,-1,-1,-1,-1,-1,-1,-1,-1,-1],"loss_changes":[3.6663852E2,3.3426727E1,1.08947525E2,8.878784E0,1.0309837E1,3.344104E1,1.092343E1,4.549301E0,8.70948E0,2.9430935E0,6.6294117E0,6.639512E0,1.8625305E1,1.6649618E0,1.9542435E1,0E0,0E0,0E0,0E0,0E0,0E0,0E0,0E0,0E0,0E0,0E0,0E0,0E0,0E0,0E0,0E0],"parents":[2147483647,0,0,1,1,2,2,3,3,4,4,5,5,6,6,7,7,8,8,9,9,10,10,11,11,12,12,13,13,14,14],"right_children":[2,4,6,8,10,12,14,16,18,20,22,24,26,28,30,-1,-1,-1,-1,-1,-1,-1,-1,-1,-1,-1,-1,-1,-1,-1,-1],"split_conditions":[2.2771937E-1,2.1388999E-1,7.5204086E-1,1.9132619E-1,4.72E-1,1.10113434E-1,2.6052007E-1,7.8979594E-1,2.72E-1,5.5397147E-1,6.8E-1,6.377551E-1,2.5040528E-1,7.12E-1,1.00264296E-1,7.763105E-3,5.2677887E-3,5.0350702E-3,3.4327123E-3,9.99891E-4,2.5663686E-3,3.4327123E-3,9.99891E-4,-1.426889E-3,9.99891E-4,-2.376204E-3,-4.598271E-3,9.99891E-4,2.3077268E-4,2.3077268E-4,-2.1210124E-3],"split_indices":[0,0,1,0,4,2,0,1,4,3,4,1,0,4,2,0,0,0,0,0,0,0,0,0,0,0,0,0,0,0,0],"split_type":[0,0,0,0,0,0,0,0,0,0,0,0,0,0,0,0,0,0,0,0,0,0,0,0,0,0,0,0,0,0,0],"sum_hessian":[4.617592E3,1.5154032E3,3.1021885E3,1.0152535E3,5.0014966E2,1.8023221E3,1.2998663E3,4.8687912E2,5.283743E2,2.902754E2,2.0987427E2,5.797892E1,1.7443433E3,5.1208875E2,7.8777765E2,1.3065312E2,3.56226E2,1.5032375E2,3.780506E2,1.8606807E2,1.0420733E2,1.4633875E2,6.3535515E1,2.1129955E1,3.6848965E1,5.960421E2,1.1483011E3,4.73036E2,3.905272E1,3.6033057E2,4.2744708E2],"tree_param":{"num_deleted":"0","num_feature":"15","num_nodes":"31","size_leaf_vector":"1"}},{"base_weights":[1.8117428E-3,4.5995185E-1,-1.7661484E-1,6.4469635E-1,3.5107088E-1,-3.4115294E-1,3.3647493E-2,7.9649854E-1,5.464116E-1,3.6626658E-1,1.416685E-3,1.416685E-1,-3.6639667E-1,1.416685E-1,-6.2136777E-2,4.978836E-3,8.625916E-3,6.0180007E-3,4.978836E-3,4.156476E-3,2.4494359E-3,-1.1236408E-3,1.416685E-3,-1.5138416E-3,-4.3073124E-3,3.976586E-4,1.416685E-3,3.976586E-4,-2.2226388E-3],"categories":[],"categories_nodes":[],"categories_segments":[],"categories_sizes":[],"default_left":[0,0,0,0,0,0,0,0,0,0,0,0,0,0,0,0,0,0,0,0,0,0,0,0,0,0,0,0,0],"id":30,"left_children":[1,3,5,7,9,11,13,15,17,19,-1,21,23,25,27,-1,-1,-1,-1,-1,-1,-1,-1,-1,-1,-1,-1,-1,-1],"loss_changes":[3.7940622E2,2.5037476E1,1.1580091E2,4.9141846E0,4.3303375E0,3.221959E1,1.7595173E1,1.3423691E0,7.095108E-1,4.2669754E0,0E0,7.704387E0,2.4595139E1,2.350626E0,2.3324465E1,0E0,0E0,0E0,0E0,0E0,0E0,0E0,0E0,0E0,0E0,0E0,0E0,0E0,0E0],"parents":[2147483647,0,0,1,1,2,2,3,3,4,4,5,5,6,6,7,7,8,8,9,9,11,11,12,12,13,13,14,14],"right_children":[2,4,6,8,10,12,14,16,18,20,-1,22,24,26,28,-1,-1,-1,-1,-1,-1,-1,-1,-1,-1,-1,-1,-1,-1],"split_conditions":[2.2194877E-1,1.8997887E-1,7.5E-1,7.969388E-1,1E0,1.10113434E-1,2.6010358E-1,7.785714E-1,8.193878E-1,2.1449387E-1,1.416685E-3,6.377551E-1,2.4044554E-1,7.6428574E-1,1.00264296E-1,4.978836E-3,8.625916E-3,6.0180007E-3,4.978836E-3,4.156476E-3,2.4494359E-3,-1.1236408E-3,1.416685E-3,-1.5138416E-3,-4.3073124E-3,3.976586E-4,1.416685E-3,3.976586E-4,-2.2226388E-3],"split_indices":[0,0,1,1,12,2,0,1,1,0,0,1,0,1,2,0,0,0,0,0,0,0,0,0,0,0,0,0,0],"split_type":[0,0,0,0,0,0,0,0,0,0,0,0,0,0,0,0,0,0,0,0,0,0,0,0,0,0,0,0,0],"sum_hessian":[4.6124087E3,1.2921956E3,3.3202131E3,4.6663678E2,8.255588E2,1.8635552E3,1.456658E3,1.6543137E2,3.012054E2,8.042045E2,2.135422E1,5.6056892E1,1.8074983E3,6.400382E2,8.1661975E2,3.7758167E1,1.27673195E2,2.319995E2,6.920592E1,5.5708636E2,2.4711821E2,2.0794226E1,3.5262665E1,4.237138E2,1.3837844E3,1.8618105E2,4.5385715E2,3.6219473E2,4.5442505E2],"tree_param":{"num_deleted":"0","num_feature":"15","num_nodes":"29","size_leaf_vector":"1"}},{"base_weights":[-4.781568E-3,3.8718343E-1,-1.9967961E-1,9.375191E-2,4.5751157E-1,-3.563353E-1,1.6345229E-2,2.2225623E-1,9.375191E-2,4.7218335E-1,9.375191E-4,9.375191E-2,-3.829287E-1,9.375191E-2,-5.3415354E-2,5.165052E-3,9.375191E-4,9.375191E-4,2.124461E-3,6.126655E-3,3.8632927E-3,-1.4458839E-3,9.375191E-4,-2.3584063E-3,-4.5915535E-3,9.375191E-4,2.0168276E-4,2.0168276E-4,-2.1513142E-3],"categories":[],"categories_nodes":[],"categories_segments":[],"categories_sizes":[],"default_left":[0,0,0,0,0,0,0,0,0,0,0,0,0,0,0,0,0,0,0,0,0,0,0,0,0,0,0,0,0],"id":31,"left_children":[1,3,5,7,9,11,13,15,17,19,-1,21,23,25,27,-1,-1,-1,-1,-1,-1,-1,-1,-1,-1,-1,-1,-1,-1],"loss_changes":[3.5462366E2,3.522397E1,1.0540475E2,2.7854116E0,1.1293335E1,3.548793E1,9.852408E0,6.7185097E0,5.064597E-1,1.3917908E1,0E0,4.2771163E0,1.9091675E1,1.2402773E0,2.0241327E1,0E0,0E0,0E0,0E0,0E0,0E0,0E0,0E0,0E0,0E0,0E0,0E0,0E0,0E0],"parents":[2147483647,0,0,1,1,2,2,3,3,4,4,5,5,6,6,7,7,8,8,9,9,11,11,12,12,13,13,14,14],"right_children":[2,4,6,8,10,12,14,16,18,20,-1,22,24,26,28,-1,-1,-1,-1,-1,-1,-1,-1,-1,-1,-1,-1,-1,-1],"split_conditions":[2.2771937E-1,7.5E-1,7.5204086E-1,1E0,8.285715E-1,1.00264296E-1,2.6010358E-1,4.7148675E-1,5.5397147E-1,1.8997887E-1,9.375191E-4,6.377551E-1,2.5118178E-1,8.163265E-1,1.00264296E-1,5.165052E-3,9.375191E-4,9.375191E-4,2.124461E-3,6.126655E-3,3.8632927E-3,-1.4458839E-3,9.375191E-4,-2.3584063E-3,-4.5915535E-3,9.375191E-4,2.0168276E-4,2.0168276E-4,-2.1513142E-3],"split_indices":[0,1,1,9,1,2,0,3,3,0,0,1,0,1,2,0,0,0,0,0,0,0,0,0,0,0,0,0,0],"split_type":[0,0,0,0,0,0,0,0,0,0,0,0,0,0,0,0,0,0,0,0,0,0,0,0,0,0,0,0,0],"sum_hessian":[4.6192393E3,1.5307137E3,3.0885256E3,2.709469E2,1.2597667E3,1.7910693E3,1.2974562E3,1.5077394E2,1.2017297E2,1.2425583E3,1.720838E1,3.8671253E1,1.7523981E3,5.0593323E2,7.9152295E2,4.393851E1,1.0683543E2,1.0295466E2,1.7218311E1,4.5527237E2,7.87286E2,1.5672521E1,2.2998734E1,6.096319E2,1.1427662E3,4.8586752E2,2.0065699E1,3.5883984E2,4.326831E2],"tree_param":{"num_deleted":"0","num_feature":"15","num_nodes":"29","size_leaf_vector":"1"}},{"base_weights":[-3.11431E-4,4.1577044E-1,-1.6858895E-1,5.9165514E-1,3.146434E-1,-3.181917E-1,3.4480814E-2,7.6460606E-1,4.815318E-1,3.855825E-1,1.5739408E-1,1.23590745E-1,-3.4634608E-1,1.23590745E-1,-5.2612737E-2,5.753482E-3,9.549109E-3,4.5314925E-3,5.493756E-3,4.5314925E-3,2.714883E-3,1.2359074E-3,2.714883E-3,-1.1137767E-3,1.2359074E-3,-2.0976444E-3,-4.2840242E-3,1.2359074E-3,3.5489004E-4,3.5489004E-4,-1.8209667E-3],"categories":[],"categories_nodes":[],"categories_segments":[],"categories_sizes":[],"default_left":[0,0,0,0,0,0,0,0,0,0,0,0,0,0,0,0,0,0,0,0,0,0,0,0,0,0,0,0,0,0,0],"id":32,"left_children":[1,3,5,7,9,11,13,15,17,19,21,23,25,27,29,-1,-1,-1,-1,-1,-1,-1,-1,-1,-1,-1,-1,-1,-1,-1,-1],"loss_changes":[3.2387003E2,2.2738464E1,1.0053148E2,7.268341E0,9.1651535E0,3.5730637E1,1.6642216E1,3.4755554E0,6.8154144E-1,6.033119E0,5.4149942E0,7.658216E0,2.0083344E1,1.683362E0,1.7962626E1,0E0,0E0,0E0,0E0,0E0,0E0,0E0,0E0,0E0,0E0,0E0,0E0,0E0,0E0,0E0,0E0],"parents":[2147483647,0,0,1,1,2,2,3,3,4,4,5,5,6,6,7,7,8,8,9,9,10,10,11,11,12,12,13,13,14,14],"right_children":[2,4,6,8,10,12,14,16,18,20,22,24,26,28,30,-1,-1,-1,-1,-1,-1,-1,-1,-1,-1,-1,-1,-1,-1,-1,-1],"split_conditions":[2.223889E-1,1.8997887E-1,7.5204086E-1,7.969388E-1,2.1449387E-1,1.10113434E-1,2.5392163E-1,1E0,1E0,7.72449E-1,5.112016E-1,6.591837E-1,2.5040528E-1,1E0,1.00264296E-1,5.753482E-3,9.549109E-3,4.5314925E-3,5.493756E-3,4.5314925E-3,2.714883E-3,1.2359074E-3,2.714883E-3,-1.1137767E-3,1.2359074E-3,-2.0976444E-3,-4.2840242E-3,1.2359074E-3,3.5489004E-4,3.5489004E-4,-1.8209667E-3],"split_indices":[0,0,1,1,0,2,0,9,5,1,3,1,0,7,2,0,0,0,0,0,0,0,0,0,0,0,0,0,0,0,0],"split_type":[0,0,0,0,0,0,0,0,0,0,0,0,0,0,0,0,0,0,0,0,0,0,0,0,0,0,0,0,0,0,0],"sum_hessian":[4.602418E3,1.3215258E3,3.280892E3,4.699778E2,8.51548E2,1.8903496E3,1.3905425E3,1.6774078E2,3.0223703E2,5.774336E2,2.7411432E2,5.841686E1,1.8319327E3,5.1723566E2,8.733068E2,9.682235E1,7.0918434E1,1.106742E2,1.9156284E2,3.107639E2,2.6666974E2,1.4420372E2,1.299106E2,2.3913277E1,3.4503582E1,6.9878436E2,1.1331484E3,5.0183514E2,1.5400523E1,3.60236E2,5.1307086E2],"tree_param":{"num_deleted":"0","num_feature":"15","num_nodes":"31","size_leaf_vector":"1"}},{"base_weights":[8.671539E-3,3.9453697E-1,-1.8531634E-1,4.8742405E-1,1.8691875E-1,-3.3111086E-1,1.4541513E-2,5.9033614E-1,3.9763385E-1,1.0461032E-1,3.371714E-1,1.0461032E-1,-3.5873446E-1,1.0461032E-1,-3.287763E-2,7.517423E-3,5.091618E-3,4.93985E-3,3.371714E-3,1.0461032E-3,2.0309538E-3,3.371714E-3,1.0461032E-3,-1.2706206E-3,1.0461032E-3,-2.205684E-3,-4.32213E-3,1.0461032E-3,3.586634E-4,3.586634E-4,-1.7601135E-3],"categories":[],"categories_nodes":[],"categories_segments":[],"categories_sizes":[],"default_left":[0,0,0,0,0,0,0,0,0,0,0,0,0,0,0,0,0,0,0,0,0,0,0,0,0,0,0,0,0,0,0],"id":33,"left_children":[1,3,5,7,9,11,13,15,17,19,21,23,25,27,29,-1,-1,-1,-1,-1,-1,-1,-1,-1,-1,-1,-1,-1,-1,-1,-1],"loss_changes":[3.474623E2,2.929419E1,9.027261E1,8.666504E0,1.02128315E1,3.173442E1,9.774621E0,4.455719E0,9.174248E0,1.6579256E0,6.129509E0,6.4675555E0,1.6951569E1,3.7607813E0,1.921487E1,0E0,0E0,0E0,0E0,0E0,0E0,0E0,0E0,0E0,0E0,0E0,0E0,0E0,0E0,0E0,0E0],"parents":[2147483647,0,0,1,1,2,2,3,3,4,4,5,5,6,6,7,7,8,8,9,9,10,10,11,11,12,12,13,13,14,14],"right_children":[2,4,6,8,10,12,14,16,18,20,22,24,26,28,30,-1,-1,-1,-1,-1,-1,-1,-1,-1,-1,-1,-1,-1,-1,-1,-1],"split_conditions":[2.2771937E-1,2.1449387E-1,7.5204086E-1,1.8997887E-1,4.72E-1,1.10113434E-1,7.689941E-2,7.9285717E-1,7.714285E-1,7.5E-1,6.8E-1,6.5204084E-1,2.5118178E-1,8.663266E-1,2.6140153E-1,7.517423E-3,5.091618E-3,4.93985E-3,3.371714E-3,1.0461032E-3,2.0309538E-3,3.371714E-3,1.0461032E-3,-1.2706206E-3,1.0461032E-3,-2.205684E-3,-4.32213E-3,1.0461032E-3,3.586634E-4,3.586634E-4,-1.7601135E-3],"split_indices":[0,0,1,0,4,2,2,1,1,1,4,1,0,1,0,0,0,0,0,0,0,0,0,0,0,0,0,0,0,0,0],"split_type":[0,0,0,0,0,0,0,0,0,0,0,0,0,0,0,0,0,0,0,0,0,0,0,0,0,0,0,0,0,0,0],"sum_hessian":[4.6139746E3,1.5435842E3,3.0703906E3,1.0584746E3,4.8510962E2,1.776309E3,1.2940817E3,4.750224E2,5.8345215E2,2.795876E2,2.0552203E2,5.825056E1,1.7180585E3,2.4565378E2,1.0484279E3,1.4101215E2,3.3401028E2,3.0194727E2,2.8150488E2,1.2832161E2,1.5126599E2,1.4230109E2,6.322095E1,2.3075342E1,3.517522E1,6.081453E2,1.1099131E3,5.4175648E1,1.9147813E2,5.2074567E2,5.2768225E2],"tree_param":{"num_deleted":"0","num_feature":"15","num_nodes":"31","size_leaf_vector":"1"}},{"base_weights":[1.1326667E-3,4.3632513E-1,-1.7316245E-1,5.7704586E-1,3.1976646E-1,-3.3446738E-1,4.4859897E-2,7.0135957E-1,4.8680806E-1,3.7406164E-1,2.1089745E-1,1.3158134E-1,-3.5490775E-1,1.3158134E-1,-5.268937E-2,1.0075336E-2,4.800659E-3,6.1088363E-3,4.4840616E-3,4.4840616E-3,2.9247955E-3,1.3158133E-3,2.8080228E-3,-1.116632E-3,1.3158133E-3,-2.139536E-3,-4.4407425E-3,1.3158133E-3,3.944598E-4,3.944598E-4,-2.2840006E-3],"categories":[],"categories_nodes":[],"categories_segments":[],"categories_sizes":[],"default_left":[0,0,0,0,0,0,0,0,0,0,0,0,0,0,0,0,0,0,0,0,0,0,0,0,0,0,0,0,0,0,0],"id":34,"left_children":[1,3,5,7,9,11,13,15,17,19,21,23,25,27,29,-1,-1,-1,-1,-1,-1,-1,-1,-1,-1,-1,-1,-1,-1,-1,-1],"loss_changes":[3.519757E2,2.0802383E1,1.1675304E2,4.9375305E0,3.9177856E0,2.781334E1,1.652132E1,1.3374954E1,2.375E0,3.8600311E0,2.286025E0,5.3497496E0,2.2852493E1,1.800972E0,2.4130741E1,0E0,0E0,0E0,0E0,0E0,0E0,0E0,0E0,0E0,0E0,0E0,0E0,0E0,0E0,0E0,0E0],"parents":[2147483647,0,0,1,1,2,2,3,3,4,4,5,5,6,6,7,7,8,8,9,9,10,10,11,11,12,12,13,13,14,14],"right_children":[2,4,6,8,10,12,14,16,18,20,22,24,26,28,30,-1,-1,-1,-1,-1,-1,-1,-1,-1,-1,-1,-1,-1,-1,-1,-1],"split_conditions":[2.2194877E-1,1.9617228E-1,7.5204086E-1,7.938776E-1,2.1449387E-1,1.00264296E-1,2.609756E-1,3.52E-1,1.548411E-1,7.755102E-1,3.12E-1,6.377551E-1,2.5118178E-1,7.12E-1,1.00264296E-1,1.0075336E-2,4.800659E-3,6.1088363E-3,4.4840616E-3,4.4840616E-3,2.9247955E-3,1.3158133E-3,2.8080228E-3,-1.116632E-3,1.3158133E-3,-2.139536E-3,-4.4407425E-3,1.3158133E-3,3.944598E-4,3.944598E-4,-2.2840006E-3],"split_indices":[0,0,1,1,0,2,0,4,0,1,4,1,0,4,2,0,0,0,0,0,0,0,0,0,0,0,0,0,0,0,0],"split_type":[0,0,0,0,0,0,0,0,0,0,0,0,0,0,0,0,0,0,0,0,0,0,0,0,0,0,0,0,0,0,0],"sum_hessian":[4.6108096E3,1.318044E3,3.2927654E3,5.8429486E2,7.3374915E2,1.893653E3,1.3991124E3,2.2684462E2,3.5745023E2,4.753284E2,2.5842072E2,3.848452E1,1.8551685E3,6.1998224E2,7.7913025E2,8.582149E1,1.4102313E2,1.3389592E2,2.235543E2,2.9129352E2,1.8403488E2,8.872288E1,1.6969785E2,1.5094172E1,2.3390348E1,7.297673E2,1.1254012E3,5.730773E2,4.690494E1,3.5978003E2,4.193502E2],"tree_param":{"num_deleted":"0","num_feature":"15","num_nodes":"31","size_leaf_vector":"1"}},{"base_weights":[7.920341E-3,3.742543E-1,-1.8696572E-1,9.364428E-2,4.402028E-1,-3.3497363E-1,1.518334E-2,9.364428E-2,3.862538E-1,5.835288E-1,3.5229412E-1,9.364428E-2,-3.654693E-1,-2.9877095E-2,9.364428E-2,2.7074548E-3,9.364428E-4,8.45306E-3,1.079846E-3,7.291179E-3,4.8914873E-3,4.114224E-3,1.1584243E-3,-1.359125E-3,9.364428E-4,-2.3357342E-3,-4.4655926E-3,4.0741212E-4,-2.7549823E-3,9.364428E-4,-9.072589E-4],"categories":[],"categories_nodes":[],"categories_segments":[],"categories_sizes":[],"default_left":[0,0,0,0,0,0,0,0,0,0,0,0,0,0,0,0,0,0,0,0,0,0,0,0,0,0,0,0,0,0,0],"id":35,"left_children":[1,3,5,7,9,11,13,15,17,19,21,23,25,27,29,-1,-1,-1,-1,-1,-1,-1,-1,-1,-1,-1,-1,-1,-1,-1,-1],"loss_changes":[3.3141742E2,3.0615326E1,9.092886E1,6.993981E0,1.550856E1,3.515248E1,1.0527139E1,1.6770589E0,9.351268E0,4.936905E0,1.1156624E1,5.679199E0,1.747342E1,2.135923E1,9.312916E-1,0E0,0E0,0E0,0E0,0E0,0E0,0E0,0E0,0E0,0E0,0E0,0E0,0E0,0E0,0E0,0E0],"parents":[2147483647,0,0,1,1,2,2,3,3,4,4,5,5,6,6,7,7,8,8,9,9,10,10,11,11,12,12,13,13,14,14],"right_children":[2,4,6,8,10,12,14,16,18,20,22,24,26,28,30,-1,-1,-1,-1,-1,-1,-1,-1,-1,-1,-1,-1,-1,-1,-1,-1],"split_conditions":[2.2901785E-1,7.5E-1,7.5204086E-1,6.08E-1,1.8997887E-1,1.10113434E-1,8.472505E-1,2.1449387E-1,4.7148675E-1,7.969388E-1,6.24E-1,6.377551E-1,2.5392163E-1,7.393075E-1,9.2755103E-1,2.7074548E-3,9.364428E-4,8.45306E-3,1.079846E-3,7.291179E-3,4.8914873E-3,4.114224E-3,1.1584243E-3,-1.359125E-3,9.364428E-4,-2.3357342E-3,-4.4655926E-3,4.0741212E-4,-2.7549823E-3,9.364428E-4,-9.072589E-4],"split_indices":[0,1,1,4,0,2,3,0,3,1,4,1,0,3,1,0,0,0,0,0,0,0,0,0,0,0,0,0,0,0,0],"split_type":[0,0,0,0,0,0,0,0,0,0,0,0,0,0,0,0,0,0,0,0,0,0,0,0,0,0,0,0,0,0,0],"sum_hessian":[4.614107E3,1.6024524E3,3.0116548E3,2.9939612E2,1.3030563E3,1.7396171E3,1.2720377E3,2.2903308E2,7.0363045E1,4.803426E2,8.227136E2,5.738018E1,1.6822369E3,1.176621E3,9.54168E1,3.8574368E1,1.9045871E2,2.1353893E1,4.9009148E1,1.7152649E2,3.088161E2,6.517937E2,1.7091995E2,2.0827278E1,3.6552902E1,6.5255914E2,1.0296777E3,9.1395105E2,2.6266986E2,8.257759E1,1.2839211E1],"tree_param":{"num_deleted":"0","num_feature":"15","num_nodes":"31","size_leaf_vector":"1"}},{"base_weights":[5.3422134E-3,-3.3059967E-1,1.874411E-1,1.0972265E-2,-3.4508768E-1,1.8387903E-2,1.7644317E-1,-4.137463E-1,-1.7811465E-1,-1.3775001E-1,2.2840697E-1,-4.3092226E-3,3.7606943E-3,-1.3492673E-3,-4.5183674E-3,4.947521E-3,-1.706803E-3,3.2577792E-3,-3.136473E-5],"categories":[],"categories_nodes":[],"categories_segments":[],"categories_sizes":[],"default_left":[0,0,0,0,0,0,0,0,0,0,0,0,0,0,0,0,0,0,0],"id":36,"left_children":[1,3,5,-1,7,-1,9,11,13,15,17,-1,-1,-1,-1,-1,-1,-1,-1],"loss_changes":[2.8374432E2,3.6947678E1,5.4508415E1,0E0,1.8009216E1,0E0,4.9388878E1,2.0544647E1,5.6310434E0,9.989758E0,5.8411804E1,0E0,0E0,0E0,0E0,0E0,0E0,0E0,0E0],"parents":[2147483647,0,0,1,1,2,2,4,4,6,6,7,7,8,8,9,9,10,10],"right_children":[2,4,6,-1,8,-1,10,12,14,16,18,-1,-1,-1,-1,-1,-1,-1,-1],"split_conditions":[7.397959E-1,8.2203366E-2,8.452139E-2,1.0972265E-2,7.265307E-1,1.8387903E-2,2.9124236E-1,8.0957234E-1,6.7718947E-1,1.1405295E-1,6.6700613E-1,-4.3092226E-3,3.7606943E-3,-1.3492673E-3,-4.5183674E-3,4.947521E-3,-1.706803E-3,3.2577792E-3,-3.136473E-5],"split_indices":[1,2,3,0,1,0,3,3,3,3,3,0,0,0,0,0,0,0,0],"split_type":[0,0,0,0,0,0,0,0,0,0,0,0,0,0,0,0,0,0,0],"sum_hessian":[4.61378E3,1.6184473E3,2.9953325E3,1.181046E1,1.6066368E3,1.3717638E1,2.981615E3,1.1290128E3,4.7762402E2,4.1923853E2,2.5623765E3,1.1138342E3,1.5178606E1,4.2213718E2,5.548686E1,1.5774011E1,4.034645E2,1.805425E3,7.569514E2],"tree_param":{"num_deleted":"0","num_feature":"15","num_nodes":"19","size_leaf_vector":"1"}},{"base_weights":[5.5727735E-3,3.7308973E-1,-1.9213918E-1,4.808829E-1,1.5668277E-1,9.0475276E-2,-2.5175706E-1,5.279674E-1,3.1878284E-1,9.0475276E-2,3.1878284E-1,-0E0,9.0475276E-4,-1.0154973E-1,-3.4717458E-1,4.719149E-3,6.885449E-3,5.0275535E-3,3.1878282E-3,2.3181187E-3,9.0475276E-4,3.1878282E-3,9.0475276E-4,9.0475276E-4,-8.064089E-4,-1.8667772E-3,-8.064089E-4,-2.2436215E-3,-3.9937384E-3],"categories":[],"categories_nodes":[],"categories_segments":[],"categories_sizes":[],"default_left":[0,0,0,0,0,0,0,0,0,0,0,0,0,0,0,0,0,0,0,0,0,0,0,0,0,0,0,0,0],"id":37,"left_children":[1,3,5,7,9,11,13,15,17,19,21,23,-1,25,27,-1,-1,-1,-1,-1,-1,-1,-1,-1,-1,-1,-1,-1,-1],"loss_changes":[3.373225E2,3.7288986E1,6.5113815E1,9.9401245E0,7.67124E0,2.2047968E0,3.7099457E1,6.422119E0,7.71636E-1,2.6322412E0,4.510748E0,1.9102844E1,0E0,6.3276587E0,1.1228592E1,0E0,0E0,0E0,0E0,0E0,0E0,0E0,0E0,0E0,0E0,0E0,0E0,0E0,0E0],"parents":[2147483647,0,0,1,1,2,2,3,3,4,4,5,5,6,6,7,7,8,8,9,9,10,10,11,11,13,13,14,14],"right_children":[2,4,6,8,10,12,14,16,18,20,22,24,-1,26,28,-1,-1,-1,-1,-1,-1,-1,-1,-1,-1,-1,-1,-1,-1],"split_conditions":[2.2901785E-1,2.1449387E-1,1.00264296E-1,5.855397E-1,5.641548E-1,8.472505E-1,2.5320277E-1,5.3054994E-1,2.2241986E-1,3.879837E-1,6.32E-1,1.1405295E-1,9.0475276E-4,5.325865E-1,3.1873727E-1,4.719149E-3,6.885449E-3,5.0275535E-3,3.1878282E-3,2.3181187E-3,9.0475276E-4,3.1878282E-3,9.0475276E-4,9.0475276E-4,-8.064089E-4,-1.8667772E-3,-8.064089E-4,-2.2436215E-3,-3.9937384E-3],"split_indices":[0,0,2,3,3,3,0,3,2,3,4,3,0,3,3,0,0,0,0,0,0,0,0,0,0,0,0,0,0],"split_type":[0,0,0,0,0,0,0,0,0,0,0,0,0,0,0,0,0,0,0,0,0,0,0,0,0,0,0,0,0],"sum_hessian":[4.6144917E3,1.6143252E3,3.0001665E3,1.0704154E3,5.439098E2,4.0054532E2,2.5996213E3,8.773991E2,1.9301631E2,3.6328973E2,1.8062006E2,2.8618558E2,1.1435974E2,1.01795184E3,1.5816694E3,6.695889E2,2.078102E2,2.1939877E1,1.7107645E2,1.1466824E2,2.486215E2,1.45233E2,3.538705E1,3.670416E1,2.4948141E2,5.852918E2,4.3266003E2,4.3392667E2,1.1477428E3],"tree_param":{"num_deleted":"0","num_feature":"15","num_nodes":"29","size_leaf_vector":"1"}},{"base_weights":[2.9245191E-3,3.635303E-1,-1.9285397E-1,4.656355E-1,1.5711772E-1,-3.4385586E-1,1.2197105E-2,5.153298E-1,3.1137663E-1,9.415554E-2,3.1137662E-3,8.533817E-2,-3.743394E-1,8.533817E-2,-4.8329476E-2,4.601794E-3,6.7880796E-3,5.02212E-3,3.1137662E-3,8.5338164E-4,2.040621E-3,-1.4450061E-3,8.5338164E-4,-5.5240076E-3,-3.2891908E-3,8.5338164E-4,1.8504345E-4,1.8504345E-4,-2.0939966E-3],"categories":[],"categories_nodes":[],"categories_segments":[],"categories_sizes":[],"default_left":[0,0,0,0,0,0,0,0,0,0,0,0,0,0,0,0,0,0,0,0,0,0,0,0,0,0,0,0,0],"id":38,"left_children":[1,3,5,7,9,11,13,15,17,19,-1,21,23,25,27,-1,-1,-1,-1,-1,-1,-1,-1,-1,-1,-1,-1,-1,-1],"loss_changes":[3.2748947E2,3.3834503E1,9.335148E1,1.03811035E1,8.1602955E0,3.746251E1,1.1841701E1,6.4667816E0,9.013319E-1,3.7836308E0,0E0,5.424699E0,1.2830826E1,2.477829E0,1.8882206E1,0E0,0E0,0E0,0E0,0E0,0E0,0E0,0E0,0E0,0E0,0E0,0E0,0E0,0E0],"parents":[2147483647,0,0,1,1,2,2,3,3,4,4,5,5,6,6,7,7,8,8,9,9,11,11,12,12,13,13,14,14],"right_children":[2,4,6,8,10,12,14,16,18,20,-1,22,24,26,28,-1,-1,-1,-1,-1,-1,-1,-1,-1,-1,-1,-1,-1,-1],"split_conditions":[2.2901785E-1,2.1449387E-1,7.5204086E-1,5.824847E-1,6.323829E-1,1.037451E-1,7.689941E-2,5.3054994E-1,2.2241986E-1,1E0,3.1137662E-3,6.377551E-1,6.959184E-1,8.663266E-1,2.6867363E-1,4.601794E-3,6.7880796E-3,5.02212E-3,3.1137662E-3,8.5338164E-4,2.040621E-3,-1.4450061E-3,8.5338164E-4,-5.5240076E-3,-3.2891908E-3,8.5338164E-4,1.8504345E-4,1.8504345E-4,-2.0939966E-3],"split_indices":[0,0,1,3,3,2,2,3,2,11,0,1,1,1,0,0,0,0,0,0,0,0,0,0,0,0,0,0,0],"split_type":[0,0,0,0,0,0,0,0,0,0,0,0,0,0,0,0,0,0,0,0,0,0,0,0,0,0,0,0,0],"sum_hessian":[4.6106743E3,1.6226772E3,2.987997E3,1.0782032E3,5.444739E2,1.7216483E3,1.2663486E3,8.734839E2,2.047194E2,4.579898E2,8.648409E1,4.4236225E1,1.6774121E3,2.4903471E2,1.01731396E3,6.7197906E2,2.0150482E2,2.258067E1,1.8213873E2,2.0501662E2,2.5297319E2,1.7533714E1,2.670251E1,3.2509912E2,1.352313E3,5.5170624E1,1.9386409E2,5.77029E2,4.40285E2],"tree_param":{"num_deleted":"0","num_feature":"15","num_nodes":"29","size_leaf_vector":"1"}},{"base_weights":[3.5761585E-3,4.0052292E-1,-1.5884352E-1,5.5266726E-1,3.0959785E-1,-3.1428006E-1,3.5585E-2,6.924407E-1,4.6254116E-1,3.2137257E-1,1.208397E-3,1.208397E-1,-3.412599E-1,1.208397E-1,-5.5408925E-2,8.580521E-3,5.4569454E-3,4.3113255E-3,5.668986E-3,2.531864E-3,3.8918431E-3,-1.1021009E-3,1.208397E-3,-1.7447466E-3,-4.4399444E-3,1.208397E-3,3.2715386E-4,3.2715386E-4,-1.9295522E-3],"categories":[],"categories_nodes":[],"categories_segments":[],"categories_sizes":[],"default_left":[0,0,0,0,0,0,0,0,0,0,0,0,0,0,0,0,0,0,0,0,0,0,0,0,0,0,0,0,0],"id":39,"left_children":[1,3,5,7,9,11,13,15,17,19,-1,21,23,25,27,-1,-1,-1,-1,-1,-1,-1,-1,-1,-1,-1,-1,-1,-1],"loss_changes":[2.9900107E2,1.7774689E1,9.967543E1,4.6414337E0,2.9744186E0,3.1968964E1,1.7949387E1,2.0114288E0,2.7011566E0,3.3600998E0,0E0,6.6677947E0,2.981186E1,1.9838276E0,2.0812885E1,0E0,0E0,0E0,0E0,0E0,0E0,0E0,0E0,0E0,0E0,0E0,0E0,0E0,0E0],"parents":[2147483647,0,0,1,1,2,2,3,3,4,4,5,5,6,6,7,7,8,8,9,9,11,11,12,12,13,13,14,14],"right_children":[2,4,6,8,10,12,14,16,18,20,-1,22,24,26,28,-1,-1,-1,-1,-1,-1,-1,-1,-1,-1,-1,-1,-1,-1],"split_conditions":[2.2194877E-1,1.8997887E-1,7.5E-1,7.969388E-1,1E0,1.10113434E-1,2.5359684E-1,3.6E-1,1E0,5.09165E-1,1.208397E-3,6.377551E-1,2.5040528E-1,7.2E-1,1.00264296E-1,8.580521E-3,5.4569454E-3,4.3113255E-3,5.668986E-3,2.531864E-3,3.8918431E-3,-1.1021009E-3,1.208397E-3,-1.7447466E-3,-4.4399444E-3,1.208397E-3,3.2715386E-4,3.2715386E-4,-1.9295522E-3],"split_indices":[0,0,1,1,12,2,0,4,5,3,0,1,0,4,2,0,0,0,0,0,0,0,0,0,0,0,0,0,0],"split_type":[0,0,0,0,0,0,0,0,0,0,0,0,0,0,0,0,0,0,0,0,0,0,0,0,0,0,0,0,0],"sum_hessian":[4.606768E3,1.3372974E3,3.2694707E3,4.86631E2,8.506663E2,1.8180697E3,1.451401E3,1.7332175E2,3.1330927E2,8.283282E2,2.2338148E1,5.6865036E1,1.7612047E3,5.522861E2,8.9911487E2,6.683931E1,1.06482445E2,1.1563244E2,1.9767682E2,4.3217853E2,3.9614963E2,2.1244816E1,3.562022E1,6.801823E2,1.0810223E3,5.1604114E2,3.624493E1,3.62864E2,5.362509E2],"tree_param":{"num_deleted":"0","num_feature":"15","num_nodes":"29","size_leaf_vector":"1"}},{"base_weights":[1.6705743E-3,-3.2233438E-1,1.734845E-1,1.2374605E-2,-3.387231E-1,1.9767523E-2,1.6157556E-1,-4.063025E-1,-1.744966E-1,1.4791888E-1,1.2588401E0,-4.23593E-3,4.493687E-3,-3.4081968E-3,-1.1438503E-3,2.1496138E-3,-1.4778266E-3,1.7293721E-2,3.0625667E-3],"categories":[],"categories_nodes":[],"categories_segments":[],"categories_sizes":[],"default_left":[0,0,0,0,0,0,0,0,0,0,0,0,0,0,0,0,0,0,0],"id":40,"left_children":[1,3,5,-1,7,-1,9,11,13,15,17,-1,-1,-1,-1,-1,-1,-1,-1],"loss_changes":[2.583512E2,4.4629883E1,6.515263E1,0E0,1.7182602E1,0E0,4.5272064E1,2.0807388E1,4.673177E0,5.97434E1,1.2758503E1,0E0,0E0,0E0,0E0,0E0,0E0,0E0,0E0],"parents":[2147483647,0,0,1,1,2,2,4,4,6,6,7,7,8,8,9,9,10,10],"right_children":[2,4,6,-1,8,-1,10,12,14,16,18,-1,-1,-1,-1,-1,-1,-1,-1],"split_conditions":[7.397959E-1,8.2203366E-2,8.452139E-2,1.2374605E-2,7.265307E-1,1.9767523E-2,8.9714867E-1,8.0957234E-1,2.24E-1,6.9857436E-1,8.72449E-1,-4.23593E-3,4.493687E-3,-3.4081968E-3,-1.1438503E-3,2.1496138E-3,-1.4778266E-3,1.7293721E-2,3.0625667E-3],"split_indices":[1,2,3,0,1,0,3,3,4,3,1,0,0,0,0,0,0,0,0],"split_type":[0,0,0,0,0,0,0,0,0,0,0,0,0,0,0,0,0,0,0],"sum_hessian":[4.6157793E3,1.5959509E3,3.0198286E3,1.2086286E1,1.5838646E3,1.3849206E1,3.0059792E3,1.1125779E3,4.712867E2,2.975531E3,3.0448397E1,1.0973289E3,1.5248973E1,1.14497696E2,3.56789E2,2.4294617E3,5.4606915E2,1.6949217E1,1.349918E1],"tree_param":{"num_deleted":"0","num_feature":"15","num_nodes":"19","size_leaf_vector":"1"}},{"base_weights":[1.2464559E-3,3.3534393E-1,-1.817701E-1,5.2414596E-1,2.355602E-1,-3.2536107E-1,2.8550442E-2,6.438436E-1,4.3189958E-1,1.18070364E-1,3.100558E-1,7.678691E-4,-3.422095E-1,-2.7064178E-2,7.678691E-4,8.183609E-3,4.976312E-3,3.7985307E-3,5.524796E-3,7.678691E-4,2.8177367E-3,7.678691E-4,3.3706587E-3,-3.6033904E-3,7.678691E-4,3.615486E-4,-2.2914421E-3],"categories":[],"categories_nodes":[],"categories_segments":[],"categories_sizes":[],"default_left":[0,0,0,0,0,0,0,0,0,0,0,0,0,0,0,0,0,0,0,0,0,0,0,0,0,0,0],"id":41,"left_children":[1,3,5,7,9,11,13,15,17,19,21,-1,23,25,-1,-1,-1,-1,-1,-1,-1,-1,-1,-1,-1,-1,-1],"loss_changes":[2.8424918E2,3.0374771E1,9.0956604E1,4.8163605E0,9.276649E0,2.0951202E1,9.510838E0,3.826889E0,4.9023705E0,7.235268E0,5.357334E0,0E0,2.1259415E1,1.4998764E1,0E0,0E0,0E0,0E0,0E0,0E0,0E0,0E0,0E0,0E0,0E0,0E0,0E0],"parents":[2147483647,0,0,1,1,2,2,3,3,4,4,5,5,6,6,7,7,8,8,9,9,10,10,12,12,13,13],"right_children":[2,4,6,8,10,12,14,16,18,20,22,-1,24,26,-1,-1,-1,-1,-1,-1,-1,-1,-1,-1,-1,-1,-1],"split_conditions":[2.2901785E-1,1.937755E-1,7.5510204E-1,7.969388E-1,7.561224E-1,1.7617108E-1,8.472505E-1,3.6E-1,8.102041E-1,4.8E-1,3.3197558E-1,7.678691E-4,8.0957234E-1,7.3625255E-1,7.678691E-4,8.183609E-3,4.976312E-3,3.7985307E-3,5.524796E-3,7.678691E-4,2.8177367E-3,7.678691E-4,3.3706587E-3,-3.6033904E-3,7.678691E-4,3.615486E-4,-2.2914421E-3],"split_indices":[0,0,1,1,1,3,3,4,1,4,3,0,3,3,0,0,0,0,0,0,0,0,0,0,0,0,0],"split_type":[0,0,0,0,0,0,0,0,0,0,0,0,0,0,0,0,0,0,0,0,0,0,0,0,0,0,0],"sum_hessian":[4.6193745E3,1.6353461E3,2.9840286E3,5.546327E2,1.0807134E3,1.774532E3,1.2094966E3,2.2366699E2,3.309657E2,4.2957025E2,6.511431E2,2.0920816E1,1.7536112E3,1.1133984E3,9.60982E1,8.836768E1,1.3529932E2,1.2479955E2,2.0616615E2,2.518461E2,1.7772415E2,5.0396027E1,6.0074713E2,1.7219856E3,3.1625511E1,8.474406E2,2.6595776E2],"tree_param":{"num_deleted":"0","num_feature":"15","num_nodes":"27","size_leaf_vector":"1"}},{"base_weights":[-3.6211498E-3,3.7773332E-1,-1.552548E-1,5.3205293E-1,2.8059888E-1,-3.8187626E-1,-3.8171344E-2,6.8183E-1,4.5592535E-1,3.5489967E-1,1.7365575E-1,1.1123926E-1,-4.1508853E-1,-7.397325E-2,1.1123926E-1,4.063259E-3,7.33285E-3,5.4831635E-3,4.063259E-3,4.063259E-3,1.370254E-3,2.7295938E-3,1.1123926E-3,-1.5192464E-3,1.1123926E-3,-5.6950217E-3,-3.462895E-3,4.445902E-4,-1.8081649E-3,1.1123926E-3,-0E0],"categories":[],"categories_nodes":[],"categories_segments":[],"categories_sizes":[],"default_left":[0,0,0,0,0,0,0,0,0,0,0,0,0,0,0,0,0,0,0,0,0,0,0,0,0,0,0,0,0,0,0],"id":42,"left_children":[1,3,5,7,9,11,13,15,17,19,21,23,25,27,29,-1,-1,-1,-1,-1,-1,-1,-1,-1,-1,-1,-1,-1,-1,-1,-1],"loss_changes":[2.6806277E2,1.8990128E1,8.781721E1,4.192917E0,6.1770325E0,2.8736908E1,2.2785929E1,1.6213074E0,2.331665E0,8.650963E0,5.16323E0,5.538843E0,1.0678146E1,2.6912445E1,3.6707497E-1,0E0,0E0,0E0,0E0,0E0,0E0,0E0,0E0,0E0,0E0,0E0,0E0,0E0,0E0,0E0,0E0],"parents":[2147483647,0,0,1,1,2,2,3,3,4,4,5,5,6,6,7,7,8,8,9,9,10,10,11,11,12,12,13,13,14,14],"right_children":[2,4,6,8,10,12,14,16,18,20,22,24,26,28,30,-1,-1,-1,-1,-1,-1,-1,-1,-1,-1,-1,-1,-1,-1,-1,-1],"split_conditions":[2.2080605E-1,1.8997887E-1,7.265307E-1,7.9285717E-1,7.72449E-1,1.037451E-1,8.472505E-1,1.76E-1,1.6056114E-1,2.1449387E-1,2.5210726E-1,6.377551E-1,6.959184E-1,2.5359684E-1,9.2755103E-1,4.063259E-3,7.33285E-3,5.4831635E-3,4.063259E-3,4.063259E-3,1.370254E-3,2.7295938E-3,1.1123926E-3,-1.5192464E-3,1.1123926E-3,-5.6950217E-3,-3.462895E-3,4.445902E-4,-1.8081649E-3,1.1123926E-3,-0E0],"split_indices":[0,0,1,1,1,2,3,4,0,0,2,1,1,0,1,0,0,0,0,0,0,0,0,0,0,0,0,0,0,0,0],"split_type":[0,0,0,0,0,0,0,0,0,0,0,0,0,0,0,0,0,0,0,0,0,0,0,0,0,0,0,0,0,0,0],"sum_hessian":[4.6111333E3,1.3078573E3,3.303276E3,4.9258865E2,8.152687E2,1.1185029E3,2.184773E3,1.4816458E2,3.4442407E2,4.6869208E2,3.465766E2,3.3597687E1,1.0849053E3,2.083979E3,1.0079407E2,2.2489294E1,1.25675285E2,1.8506718E2,1.5935689E2,3.1974084E2,1.4895123E2,2.395636E2,1.07013E2,1.710304E1,1.6494648E1,3.1869574E2,7.6620953E2,9.853311E2,1.0986478E3,8.767143E1,1.3122634E1],"tree_param":{"num_deleted":"0","num_feature":"15","num_nodes":"31","size_leaf_vector":"1"}},{"base_weights":[-2.0719776E-3,-2.6471394E-1,1.9164471E-1,1.1911951E-2,-2.795618E-1,1.995027E-2,1.7834625E-1,-3.871466E-1,-1.3540885E-1,1.660863E-1,1.819834E-2,-4.070448E-3,4.558167E-3,-6.522353E-4,-3.3944156E-3,2.272623E-3,-9.894166E-4],"categories":[],"categories_nodes":[],"categories_segments":[],"categories_sizes":[],"default_left":[0,0,0,0,0,0,0,0,0,0,0,0,0,0,0,0,0],"id":43,"left_children":[1,3,5,-1,7,-1,9,11,13,15,-1,-1,-1,-1,-1,-1,-1],"loss_changes":[2.3602585E2,4.560382E1,6.372177E1,0E0,2.991362E1,0E0,5.33107E1,2.5283218E1,1.2112397E1,4.3197037E1,0E0,0E0,0E0,0E0,0E0,0E0,0E0],"parents":[2147483647,0,0,1,1,2,2,4,4,6,6,7,7,8,8,9,9],"right_children":[2,4,6,-1,8,-1,10,12,14,16,-1,-1,-1,-1,-1,-1,-1],"split_conditions":[7.5E-1,8.2203366E-2,8.452139E-2,1.1911951E-2,7.265307E-1,1.995027E-2,9.2260695E-1,8.0957234E-1,6.130346E-1,7.046843E-1,1.819834E-2,-4.070448E-3,4.558167E-3,-6.522353E-4,-3.3944156E-3,2.272623E-3,-9.894166E-4],"split_indices":[1,2,3,0,1,0,3,3,3,3,0,0,0,0,0,0,0],"split_type":[0,0,0,0,0,0,0,0,0,0,0,0,0,0,0,0,0],"sum_hessian":[4.6097637E3,1.9581816E3,2.651582E3,1.5089535E1,1.9430922E3,1.340539E1,2.6381765E3,1.103877E3,8.392152E2,2.6246885E3,1.3488167E1,1.088624E3,1.5252934E1,6.3297675E2,2.0623845E2,2.1361013E3,4.8858716E2],"tree_param":{"num_deleted":"0","num_feature":"15","num_nodes":"17","size_leaf_vector":"1"}},{"base_weights":[2.4619466E-3,3.3180985E-1,-1.7656095E-1,4.18591E-1,1.4775099E-1,-3.215434E-1,1.5581578E-2,5.008961E-1,3.2582834E-1,7.762445E-2,2.83171E-1,7.762445E-2,-3.490373E-1,3.9884944E-2,-2.6804587E-1,5.309175E-3,4.133622E-3,4.133622E-3,2.8317098E-3,7.7624444E-4,1.4756472E-3,2.8317098E-3,7.7624444E-4,-1.3570642E-3,7.7624444E-4,-5.2732676E-3,-3.0242475E-3,5.243591E-4,-4.3411297E-3,-4.0014894E-4,-3.5715224E-3],"categories":[],"categories_nodes":[],"categories_segments":[],"categories_sizes":[],"default_left":[0,0,0,0,0,0,0,0,0,0,0,0,0,0,0,0,0,0,0,0,0,0,0,0,0,0,0,0,0,0,0],"id":44,"left_children":[1,3,5,7,9,11,13,15,17,19,21,23,25,27,29,-1,-1,-1,-1,-1,-1,-1,-1,-1,-1,-1,-1,-1,-1,-1,-1],"loss_changes":[2.7327206E2,2.558339E1,8.388733E1,7.5668945E0,1.0604085E1,2.8234726E1,9.2798395E0,2.3384857E0,4.5539284E0,8.9203966E-1,7.0682907E0,5.9587784E0,1.3032547E1,7.721672E0,1.8003526E0,0E0,0E0,0E0,0E0,0E0,0E0,0E0,0E0,0E0,0E0,0E0,0E0,0E0,0E0,0E0,0E0],"parents":[2147483647,0,0,1,1,2,2,3,3,4,4,5,5,6,6,7,7,8,8,9,9,10,10,11,11,12,12,13,13,14,14],"right_children":[2,4,6,8,10,12,14,16,18,20,22,24,26,28,30,-1,-1,-1,-1,-1,-1,-1,-1,-1,-1,-1,-1,-1,-1,-1,-1],"split_conditions":[2.286012E-1,2.1449387E-1,7.5204086E-1,1.937755E-1,4.56E-1,1.10113434E-1,7.12E-1,8.2448983E-1,7.714285E-1,7.5E-1,6.88E-1,6.377551E-1,6.969388E-1,1E0,1.191802E-1,5.309175E-3,4.133622E-3,4.133622E-3,2.8317098E-3,7.7624444E-4,1.4756472E-3,2.8317098E-3,7.7624444E-4,-1.3570642E-3,7.7624444E-4,-5.2732676E-3,-3.0242475E-3,5.243591E-4,-4.3411297E-3,-4.0014894E-4,-3.5715224E-3],"split_indices":[0,0,1,0,4,2,4,1,1,1,4,1,1,7,2,0,0,0,0,0,0,0,0,0,0,0,0,0,0,0,0],"split_type":[0,0,0,0,0,0,0,0,0,0,0,0,0,0,0,0,0,0,0,0,0,0,0,0,0,0,0,0,0,0,0],"sum_hessian":[4.6050464E3,1.6221326E3,2.9829138E3,1.0943553E3,5.277772E2,1.7011425E3,1.2817715E3,5.624944E2,5.3186096E2,2.9072284E2,2.3705435E2,5.7836506E1,1.6433059E3,1.1878132E3,9.3958275E1,5.3634735E2,2.6147022E1,2.9143997E2,2.4042099E2,1.3579967E2,1.5492317E2,1.7424672E2,6.2807632E1,2.0610064E1,3.722644E1,3.254531E2,1.3178529E3,1.1635599E3,2.4253258E1,3.1588484E1,6.236979E1],"tree_param":{"num_deleted":"0","num_feature":"15","num_nodes":"31","size_leaf_vector":"1"}},{"base_weights":[9.054444E-3,3.3102793E-1,-1.6414917E-1,4.116721E-1,1.5141079E-1,-3.126022E-1,3.191844E-2,4.5768192E-1,2.8154144E-1,8.343938E-2,2.8154144E-1,8.343938E-2,-3.410456E-1,-2.1496397E-2,8.343938E-4,4.0253177E-3,6.217208E-3,2.8154142E-3,4.7242055E-3,2.8154142E-3,8.343938E-4,8.343938E-4,2.8154142E-3,-1.288031E-3,8.343938E-4,-5.447539E-3,-2.9180092E-3,8.343938E-4,-1.3656889E-3],"categories":[],"categories_nodes":[],"categories_segments":[],"categories_sizes":[],"default_left":[0,0,0,0,0,0,0,0,0,0,0,0,0,0,0,0,0,0,0,0,0,0,0,0,0,0,0,0,0],"id":45,"left_children":[1,3,5,7,9,11,13,15,17,19,21,23,25,27,-1,-1,-1,-1,-1,-1,-1,-1,-1,-1,-1,-1,-1,-1,-1],"loss_changes":[2.5872208E2,2.3020187E1,8.805434E1,8.885117E0,8.169666E0,2.9602707E1,1.00334E1,7.01622E0,2.161316E0,1.2304747E0,3.998911E0,5.365749E0,1.5951767E1,2.0775715E1,0E0,0E0,0E0,0E0,0E0,0E0,0E0,0E0,0E0,0E0,0E0,0E0,0E0,0E0,0E0],"parents":[2147483647,0,0,1,1,2,2,3,3,4,4,5,5,6,6,7,7,8,8,9,9,10,10,11,11,12,12,13,13],"right_children":[2,4,6,8,10,12,14,16,18,20,22,24,26,28,-1,-1,-1,-1,-1,-1,-1,-1,-1,-1,-1,-1,-1,-1,-1],"split_conditions":[2.281323E-1,2.1449387E-1,7.5204086E-1,5.824847E-1,7.561224E-1,1.10113434E-1,8.472505E-1,5.3054994E-1,8.091837E-1,5.6E-2,1.68E-1,6.377551E-1,6.959184E-1,2.6010358E-1,8.343938E-4,4.0253177E-3,6.217208E-3,2.8154142E-3,4.7242055E-3,2.8154142E-3,8.343938E-4,8.343938E-4,2.8154142E-3,-1.288031E-3,8.343938E-4,-5.447539E-3,-2.9180092E-3,8.343938E-4,-1.3656889E-3],"split_indices":[0,0,1,3,1,2,3,3,1,4,4,1,1,0,0,0,0,0,0,0,0,0,0,0,0,0,0,0,0],"split_type":[0,0,0,0,0,0,0,0,0,0,0,0,0,0,0,0,0,0,0,0,0,0,0,0,0,0,0,0,0],"sum_hessian":[4.609044E3,1.6125826E3,2.9964614E3,1.1046099E3,5.0797266E2,1.7065056E3,1.2899559E3,8.9682623E2,2.077837E2,2.7523706E2,2.3273561E2,5.751481E1,1.6489907E3,1.1930762E3,9.687974E1,6.886625E2,2.0816374E2,1.5306378E2,5.471993E1,1.0355354E1,2.648817E2,3.693831E1,1.957973E2,2.1118792E1,3.639602E1,3.0727634E2,1.3417145E3,5.0033902E2,6.927372E2],"tree_param":{"num_deleted":"0","num_feature":"15","num_nodes":"29","size_leaf_vector":"1"}},{"base_weights":[2.4219598E-3,3.319564E-1,-1.7528847E-1,4.937427E-1,2.3078556E-1,-3.1404504E-1,8.427072E-3,5.357421E-1,3.622641E-3,7.833396E-2,2.9091215E-1,7.833396E-2,-3.4481668E-1,7.833396E-2,-5.8443975E-2,5.6276214E-3,3.622641E-3,2.11507E-3,7.8333955E-4,8.766872E-4,3.2397308E-3,-1.3324135E-3,7.8333955E-4,-1.97592E-3,-4.069245E-3,7.8333955E-4,9.944992E-5,9.944992E-5,-2.1843775E-3],"categories":[],"categories_nodes":[],"categories_segments":[],"categories_sizes":[],"default_left":[0,0,0,0,0,0,0,0,0,0,0,0,0,0,0,0,0,0,0,0,0,0,0,0,0,0,0,0,0],"id":46,"left_children":[1,3,5,7,9,11,13,15,-1,17,19,21,23,25,27,-1,-1,-1,-1,-1,-1,-1,-1,-1,-1,-1,-1,-1,-1],"loss_changes":[2.7135657E2,2.5980377E1,7.697204E1,4.5386047E0,9.205719E0,3.2318176E1,8.946286E0,4.162262E0,0E0,3.185554E0,4.5299797E0,5.2411623E0,1.4604309E1,9.4798756E-1,1.9298477E1,0E0,0E0,0E0,0E0,0E0,0E0,0E0,0E0,0E0,0E0,0E0,0E0,0E0,0E0],"parents":[2147483647,0,0,1,1,2,2,3,3,4,4,5,5,6,6,7,7,9,9,10,10,11,11,12,12,13,13,14,14],"right_children":[2,4,6,8,10,12,14,16,-1,18,20,22,24,26,28,-1,-1,-1,-1,-1,-1,-1,-1,-1,-1,-1,-1,-1,-1],"split_conditions":[2.281323E-1,1.9617228E-1,7.5204086E-1,5.7637477E-1,7.5E-1,1.10113434E-1,2.5967723E-1,8.285715E-1,3.622641E-3,1E0,3.543788E-1,6.377551E-1,2.4802588E-1,1E0,1.00264296E-1,5.6276214E-3,3.622641E-3,2.11507E-3,7.8333955E-4,8.766872E-4,3.2397308E-3,-1.3324135E-3,7.8333955E-4,-1.97592E-3,-4.069245E-3,7.8333955E-4,9.944992E-5,9.944992E-5,-2.1843775E-3],"split_indices":[0,0,1,3,1,2,0,1,0,9,3,1,0,7,2,0,0,0,0,0,0,0,0,0,0,0,0,0,0],"split_type":[0,0,0,0,0,0,0,0,0,0,0,0,0,0,0,0,0,0,0,0,0,0,0,0,0,0,0,0,0],"sum_hessian":[4.6038022E3,1.6133676E3,2.9904346E3,6.0946387E2,1.0039037E3,1.7047603E3,1.2856743E3,5.17777E2,9.168691E1,2.882809E2,7.156228E2,5.9307697E1,1.6454526E3,4.9577765E2,7.898966E2,5.0488724E2,1.2889717E1,1.6133093E2,1.2694998E2,1.0690791E2,6.0871484E2,2.0985378E1,3.832232E1,4.991772E2,1.1462754E3,4.804668E2,1.5310839E1,3.5974832E2,4.301483E2],"tree_param":{"num_deleted":"0","num_feature":"15","num_nodes":"29","size_leaf_vector":"1"}},{"base_weights":[4.979304E-3,3.527023E-1,-1.6082841E-1,4.130511E-1,1.7125584E-1,9.593694E-2,-2.1766463E-1,4.5876944E-1,2.9215348E-1,9.593694E-2,2.9215348E-1,9.593694E-2,-6.0863845E-4,-6.446886E-2,-3.392918E-1,4.0010954E-3,6.3561546E-3,4.859276E-3,2.9215347E-3,9.5936935E-4,2.3649666E-3,9.5936935E-4,2.9215347E-3,9.5936935E-4,1.7536547E-4,-1.3783161E-3,-6.0863845E-4,-2.025905E-3,-3.90381E-3],"categories":[],"categories_nodes":[],"categories_segments":[],"categories_sizes":[],"default_left":[0,0,0,0,0,0,0,0,0,0,0,0,0,0,0,0,0,0,0,0,0,0,0,0,0,0,0,0,0],"id":47,"left_children":[1,3,5,7,9,11,13,15,17,19,21,23,-1,25,27,-1,-1,-1,-1,-1,-1,-1,-1,-1,-1,-1,-1,-1,-1],"loss_changes":[2.6764243E2,1.5884552E1,6.220501E1,8.558975E0,7.7073374E0,1.9743071E0,5.0693787E1,8.251663E0,9.578533E-1,2.1343582E0,2.3652706E0,7.331619E-1,0E0,4.274437E0,1.0106659E1,0E0,0E0,0E0,0E0,0E0,0E0,0E0,0E0,0E0,0E0,0E0,0E0,0E0,0E0],"parents":[2147483647,0,0,1,1,2,2,3,3,4,4,5,5,6,6,7,7,8,8,9,9,10,10,11,11,13,13,14,14],"right_children":[2,4,6,8,10,12,14,16,18,20,22,24,-1,26,28,-1,-1,-1,-1,-1,-1,-1,-1,-1,